<opencv_storage>
<my_svm type_id="opencv-ml-svm">
    <svm_type>C_SVC</svm_type>
    <kernel>
      <type>linear</type>
      <gamma>auto</gamma>
    </kernel>
    <C>0.1</C>
    <term_criteria>
      <epsilon>0.001</epsilon>
      <iterations>1000</iterations>
    </term_criteria>
    <var_all>1080</var_all>
    <var_count>1080</var_count>
    <class_count>2</class_count>
    <class_labels type_id="opencv-matrix">
      <rows>2</rows>
      <cols>1</cols>
      <dt>i</dt>
      <data>0 1</data>
    </class_labels>
    <sv_total>486</sv_total>
    <support_vectors>
      <_>9.749 -18.69307 0.0 0.0 -41.065 5.8119 -62.619 70.3663 -84.108 111.4842 41.135 -2.0112 68.46 48.8617 68.46 105.5732 -25.414 127.1022 -45.043 217.0202 -52.835 299.3092 27.395 129.0222 29.362 221.0332 31.312 316.8792 -937.19 -23.5638 19.542 -18.68406 -17.644 -18.69286 25.395 -18.68348 5.886 -20.62069 0.0 0.0 -44.954 5.8319 -64.556 62.6227 -80.197 111.4797 43.002 -1.9749 64.546 52.7819 62.656 107.5117 -29.334 123.2037 -46.985 203.4287 -60.669 291.4877 29.278 125.1707 27.416 215.1927 31.309 305.1667 -1.99 -20.60837 15.627 -20.61189 -15.712 -20.61712 19.556 -20.61024 5.887 -30.29152 0.0 0.0 -41.063 0.0746 -64.579 60.6884 -78.224 107.673 43.06 -3.8487 64.609 49.0287 62.589 101.787 -29.302 123.32 -50.829 205.555 -64.621 293.553 27.452 127.187 27.416 223.07 29.334 318.981 -3.872 -30.27073 13.67 -30.28016 -17.578 -30.28575 25.381 -30.2792 4.02 -32.29748 0.0 0.0 -46.822 0.0171 -70.393 58.6992 -86.013 109.5202 41.14 -0.0527 62.66 56.7207 60.76 107.6372 -31.242 123.2352 -60.484 203.4402 -78.155 283.7392 23.537 125.2572 17.739 219.1272 15.663 311.0782 -5.772 -32.27883 15.688 -32.28798 -19.462 -32.29578 19.647 -32.28724 11.65 -34.19189 0.0 0.0 -43.103 0.0278 -66.61 60.6507 -86.164 109.5822 44.964 -1.844 62.584 58.7735 62.494 109.6932 -31.298 123.2842 -58.778 201.6072 -78.356 285.7292 29.188 125.3152 27.3 219.1922 15.617 313.1142 -962.686 -39.0548 -962.686 -39.0548 -17.662 -34.19702 29.161 -34.19086 25.338 -34.37423 0.0 0.0 -41.13 1.846 -68.498 62.4671 -84.235 111.4201 43.086 -0.0502 62.606 60.5914 60.676 115.3511 -29.413 127.1401 -52.962 205.3281 -76.324 289.4611 27.362 130.9951 25.455 224.9171 11.703 316.8811 13.678 -34.35601 27.359 -34.35278 -9.834 -34.35837 -966.564 -39.2079 15.773 -34.34415 0.0 0.0 -46.825 1.9334 -76.134 62.5189 -93.747 109.5689 43.179 -0.0919 60.789 60.6005 62.609 115.3669 -33.15 125.2229 -60.463 203.5109 -80.089 289.4879 19.7 129.1099 19.632 219.0439 2.091 303.1989 4.02 -34.32782 19.69 -34.32158 -15.574 -34.33635 -976.201 -39.1851 19.54 -17.6525 0.0 0.0 -43.129 1.9235 -72.4 62.4663 -91.993 111.4623 44.976 -0.1147 64.496 54.6919 62.646 113.3593 -29.453 125.1463 -47.064 205.4003 -72.43 295.3803 25.376 127.0773 21.472 218.9923 1.937 307.0723 -976.354 -39.2197 -976.354 -39.2197 -9.835 -35.3384 -976.354 -39.2197 27.276 -27.4863 0.0 0.0 -41.134 1.8903 -68.499 60.5835 -88.105 115.3707 44.946 -0.0931 64.516 58.6009 62.636 111.5057 -33.25 129.0557 -50.956 215.1377 -80.189 299.2547 25.426 132.9677 17.621 226.8977 -2.007 313.0067 13.748 -35.31529 29.296 -34.35909 -5.896 -35.31942 -980.244 -39.2043 17.575 -23.5529 0.0 0.0 -44.981 1.961 -76.208 60.6095 -97.719 115.4085 41.175 -1.9265 60.675 58.7017 54.895 115.4225 -41.014 131.0665 -58.521 217.1905 -72.316 311.0475 17.645 134.9545 7.89 228.8595 -11.632 314.9795 4.037 -36.28313 19.645 -36.27954 -13.64 -36.28741 -989.925 -41.1135 13.72 -21.6048 0.0 0.0 -46.848 1.9014 -76.233 58.643 -93.87 111.5051 45.09 -0.0648 62.61 60.5621 60.67 115.4151 -37.113 131.0231 -56.68 215.2191 -76.192 305.1701 17.66 134.9471 9.83 226.9001 -13.66 312.9881 2.015 -37.24548 17.63 -37.2425 -13.692 -36.30334 29.35 -36.28327 -992.023 -43.0415 0.0 0.0 -45.054 1.9319 -74.433 58.6715 -93.998 117.3415 46.897 -1.9372 64.427 56.7996 62.487 113.5115 -33.299 133.0215 -48.952 221.0975 -72.438 316.9315 19.457 135.0085 7.73 228.9305 -15.791 322.8295 -992.023 -43.0415 -992.023 -43.0415 -13.753 -38.20883 27.327 -38.21377 1.997 -25.3459 0.0 0.0 -45.031 1.9635 -76.229 56.7985 -93.892 115.4305 46.929 -5.8039 62.689 52.8689 60.709 109.6035 -33.27 129.1155 -46.999 217.1845 -72.416 311.1055 19.579 131.0745 7.809 224.9455 -19.598 318.9015 -1.968 -35.235 13.649 -29.3772 -993.911 -46.9475 -993.911 -46.9475 1.993 -27.4588 0.0 0.0 -44.988 1.9359 -72.354 58.6666 -93.9 117.3206 45.038 -1.9378 62.688 56.7656 60.678 115.3866 -35.131 131.0136 -44.965 217.1716 -68.434 307.1856 21.528 133.0046 7.878 225.0036 -19.583 318.8616 -1.951 -40.19131 11.808 -41.13955 -13.64 -40.1953 -995.842 -45.0224 -999.815 -46.9821 0.0 0.0 -45.002 3.8296 -72.476 56.7649 -97.812 115.3519 43.075 -3.8978 60.665 54.7849 56.795 113.3879 -37.227 129.1209 -39.248 217.1659 -70.45 307.1519 19.555 131.0809 5.785 224.9269 -23.535 316.9089 -999.815 -46.9821 -999.815 -46.9821 -11.789 -42.15217 25.415 -42.15401 7.74 -29.3813 0.0 0.0 -46.965 0.0211 -74.389 62.5416 -97.831 113.4166 44.98 -1.9546 62.6 54.7696 58.65 111.5626 -37.213 129.1466 -41.067 221.0096 -70.511 301.3236 21.42 133.0506 3.84 226.9416 -27.465 315.0006 -1001.76 -50.8794 -1001.76 -50.8794 -13.711 -46.98904 -1001.76 -50.8794 11.757 -29.3978 0.0 0.0 -48.862 1.8733 -72.383 62.641 -89.983 119.313 45.047 -1.9553 66.507 54.787 60.647 111.504 -35.17 129.128 -37.172 219.136 -68.457 299.348 23.427 134.996 1.987 230.828 -25.5 314.967 -999.783 -52.841 23.387 -39.1646 -999.783 -52.841 27.457 -48.95977 7.92 -19.6627 0.0 0.0 -48.879 1.8914 -72.421 64.4351 -90.021 119.2231 46.96 -0.1645 66.51 58.6041 60.66 111.5071 -33.261 136.8301 -37.146 224.9441 -62.565 312.9061 21.57 138.8201 1.94 234.6601 -27.385 322.7581 5.79 -31.4069 19.6 -31.3319 -1001.72 -52.9129 -1001.72 -52.9129 11.7 -25.4475 0.0 0.0 -46.979 1.9283 -72.41 64.5847 -88.16 123.2157 46.94 -1.9443 66.5 56.7587 62.57 109.6287 -33.253 135.0077 -37.155 226.9687 -58.761 311.0497 23.38 138.8497 1.94 234.7297 -27.404 320.8587 5.86 -33.3292 21.47 -33.2654 -11.736 -43.0622 -1001.76 -54.7733 3.83 -9.9181 0.0 0.0 -48.885 3.8316 -74.263 66.4269 -90.001 123.1409 48.84 -0.185 64.58 58.5589 62.63 109.5349 -29.371 136.8429 -27.451 224.8749 -44.971 307.0589 21.59 138.7549 3.88 232.6569 -25.49 312.9499 -5.859 -17.7508 11.77 -17.733 -15.663 -35.3777 23.5 -33.4318 2.05 -11.7077 0.0 0.0 -48.838 5.856 -74.343 68.4888 -91.84 123.2448 46.98 -3.9267 64.59 56.7658 64.52 111.5478 -29.396 135.0018 -31.253 224.9958 -46.928 309.1308 21.58 135.0688 1.94 228.9628 -27.346 318.9048 -3.88 -21.5163 13.76 -21.4775 -17.525 -35.2556 21.6 -35.2293 3.87 -15.6042 0.0 0.0 -46.98 3.9185 -74.323 66.5608 -90.069 125.2258 46.95 -7.746 64.57 54.7378 64.53 109.5688 -29.367 133.0198 -31.281 221.1208 -41.055 303.2878 25.4 133.0638 2.03 225.0238 -21.48 305.2158 -1.98 -25.4121 15.6 -25.3634 -15.719 -39.0054 21.61 -37.1503 1.95 -15.6471 0.0 0.0 -46.938 2.0216 -74.338 64.5907 -91.942 123.3617 46.9 -9.6993 64.64 48.9987 64.62 105.7447 -29.361 129.2667 -33.249 221.1657 -54.776 305.3077 25.41 133.1287 1.87 225.0837 -27.367 315.1177 -7.817 -29.2876 9.81 -29.1595 -19.572 -39.0148 21.53 -33.2075 0.03 -19.616 0.0 0.0 -46.933 1.9688 -74.207 64.5711 -90.019 127.0801 45.04 -3.9758 66.5 48.9101 66.5 107.5151 -29.25 129.0921 -31.233 219.0891 -39.081 305.1821 27.45 131.0241 3.93 221.0271 -19.536 311.0341 -9.693 -31.3403 5.91 -29.3354 -19.55 -37.2434 19.59 -31.271 3.85 -11.6721 0.0 0.0 -45.075 3.9355 -72.407 70.4604 -88.06 129.1654 46.92 -3.9449 68.49 48.9214 68.53 107.6384 -27.396 133.0964 -37.179 228.9564 -56.775 313.0664 27.35 136.9844 -1.96 232.9004 -27.381 324.8504 -3.952 -17.6483 9.76 -17.5702 -17.62 -33.2579 21.54 -29.3305 3.99 -3.9698 0.0 0.0 -46.942 9.6882 -74.205 74.2674 -89.885 134.9214 45.08 -3.9939 66.67 46.9824 66.71 107.5134 -27.32 134.9644 -31.204 230.8064 -37.09 318.8814 29.42 135.0044 2.04 230.8294 -5.786 328.6634 0.03 -15.6435 13.8 -13.745 -17.571 -31.2676 21.58 -21.5669 5.99 -2.0119 0.0 0.0 -48.863 11.6271 -72.295 78.2196 -88.003 138.8846 45.07 -4.0505 68.64 46.9306 70.49 107.5346 -25.381 136.8726 -27.384 228.8756 -29.31 314.9236 33.25 136.8666 7.85 230.7366 1.97 326.6946 3.9 -7.9306 17.64 -9.798 -17.517 -29.3806 23.51 -19.68 4.01 -1.9161 0.0 0.0 -48.875 9.8429 -72.249 74.4464 -87.979 136.9974 47.0 -5.9344 70.46 44.9954 70.48 105.6794 -25.334 133.0274 -25.393 217.1704 -27.338 299.3504 35.16 131.0764 21.53 211.3214 -7.808 262.1714 -1.88 -5.9333 13.73 -5.9134 -19.506 -25.4577 21.66 -19.5963 1.99 1.9056 0.0 0.0 -50.806 9.7825 -72.322 72.3053 -87.956 135.0053 46.97 -7.9015 70.45 43.0513 70.52 103.6753 -25.34 125.1963 -25.368 211.2403 -25.389 289.5163 35.19 121.2853 31.35 197.6343 1.97 244.5033 -7.733 -5.9787 7.89 -5.937 -23.453 -23.4866 21.57 -17.6111 7.82 0.0069 0.0 0.0 -46.964 7.8642 -70.367 68.4682 -82.14 131.0852 46.99 -11.7103 72.45 37.2852 72.5 99.7462 -23.353 123.3112 -21.457 207.4652 -23.395 293.5212 37.19 117.4362 37.2 193.7912 3.9 236.7932 1.98 -9.7518 17.6 -9.7991 -19.54 -25.3782 25.43 -21.4832</_>
      <_>-25.49 -17.6338 0.0 0.0 -47.0 -1.9699 -72.397 50.7878 -78.322 105.5958 45.02 1.9113 74.3 60.5848 58.7 109.4928 -37.21 125.1158 -50.97 211.2108 -72.423 287.5678 15.72 131.0378 13.59 217.0368 -9.82 289.4858 -31.23 -31.3574 -15.74 -25.4896 -1056.55 -86.1502 11.68 -31.4337 -21.58 -15.744 0.0 0.0 -46.95 -3.9355 -66.516 46.9309 -72.414 97.8249 46.87 1.969 76.32 60.5649 60.69 111.5379 -35.22 123.1919 -47.04 205.4619 -64.528 283.6379 19.56 127.1459 13.71 211.2789 -3.94 281.7519 -29.3 -31.3369 -15.62 -27.4055 -1056.55 -84.1561 13.59 -31.2815 -25.53 -15.5772 0.0 0.0 -45.03 -9.6946 -66.569 39.2363 -64.633 92.0553 43.02 0.1812 74.4 56.8353 56.74 111.6823 -37.18 121.3933 -48.98 203.5573 -52.94 275.9713 19.5 125.3793 9.8 207.4603 -5.97 275.9783 -35.17 -31.1503 -19.59 -27.2788 -1060.49 -84.0317 9.63 -31.3054 -27.41 -13.7068 0.0 0.0 -41.12 -5.9246 -58.68 48.861 -64.503 93.897 43.03 7.7178 76.34 56.797 58.62 119.249 -37.16 125.183 -48.89 209.292 -52.83 277.783 17.6 133.017 9.85 215.186 -5.91 281.694 -33.27 -25.4549 -19.56 -21.5647 -1060.44 -76.328 9.76 -29.3591 -37.13 -23.4876 0.0 0.0 -41.15 -7.8273 -56.81 45.0338 -62.63 97.8368 39.15 5.8238 72.41 56.7598 52.85 117.3498 -39.1 121.3098 -50.9 195.7458 -54.79 271.9128 15.67 131.0458 7.75 211.3278 -9.78 275.8738 -39.07 -37.1619 -23.54 -27.4283 -1064.35 -78.2652 5.87 -39.0345 -39.13 -23.5228 0.0 0.0 -41.12 -3.9843 -56.7 46.9365 -60.62 89.9975 37.14 7.8135 70.52 60.6045 50.87 119.2895 -39.11 121.3025 -50.83 199.5015 -56.72 277.7435 15.69 129.1135 5.85 215.1155 -11.67 279.7755 -41.04 -37.1873 -27.43 -33.3267 -1066.29 -74.3835 3.9 -37.1484 -42.9 -19.6196 0.0 0.0 -44.81 -3.9734 -50.8 43.0633 -60.55 78.2493 35.29 9.7841 66.64 62.6353 37.27 121.3183 -42.9 123.2513 -48.88 203.4953 -54.71 281.7203 13.75 133.0683 0.13 217.1343 -15.6 293.4323 -44.84 -33.2915 -31.26 -31.2478 -1070.13 -72.3787 0.0699999999999 -35.2603 -44.86 -33.2472 0.0 0.0 -42.96 -5.8084 -46.93 41.1271 -54.74 74.3861 33.37 7.8325 64.72 58.6531 33.39 119.2381 -39.09 121.3551 -48.83 203.4501 -45.0 277.8581 13.73 133.0261 0.05 213.3021 -15.6 291.5291 -44.89 -43.0884 -31.33 -37.161 -1070.17 -74.3589 -0.00999999999999 -39.1064 -44.86 -31.3513 0.0 0.0 -42.92 -2.0971 -45.01 46.9388 -46.97 91.8768 33.34 9.65 64.72 60.5818 31.38 119.2878 -42.9 132.9478 -44.9 230.7978 -19.49 301.2238 11.8 138.8358 -1.87 230.7388 -31.25 309.0298 -44.9 -45.0148 -31.35 -35.2784 -1070.15 -70.5182 -0.0300000000002 -37.297 -44.96 -31.1955 0.0 0.0 -39.07 -5.765 -44.85 49.0205 -44.84 99.8675 31.46 3.9964 64.6 58.7855 31.4 111.5765 -40.96 129.2145 -42.98 221.1995 -13.59 293.5315 7.91 138.9175 -5.83 221.1775 -31.23 303.3175 -44.92 -39.0889 -37.08 -37.1237 -1070.14 -70.3595 -3.88 -40.9902 -44.97 -27.3738 0.0 0.0 -31.31 -9.7593 -1070.21 -66.4637 -1070.21 -66.4637 31.24 4.007 60.59 64.5183 19.58 117.4563 -37.2 129.1553 -43.07 221.1203 -15.62 275.9223 3.99 135.0763 -7.83 223.0513 -19.56 301.3483 -46.92 -39.0482 -37.19 -35.1442 -1070.21 -66.4637 -9.79 -39.0756 -45.04 -23.5494 0.0 0.0 -27.45 -5.8893 -1070.27 -60.6889 -1070.27 -60.6889 29.23 7.8305 50.83 68.4571 15.55 119.3631 -33.32 129.0661 -44.96 209.2701 -29.34 260.1831 7.77 134.9131 -3.97 217.1221 -13.71 291.4581 -45.1 -35.176 -39.2 -35.217 -1070.27 -60.6889 -13.75 -35.2659 -45.01 -27.4305 0.0 0.0 -25.42 -3.9323 -1070.21 -56.7812 -1070.21 -56.7812 21.56 9.7681 47.02 72.3648 3.92 123.2888 -31.29 127.1408 -43.0 203.4538 -23.49 262.1428 5.89 136.8438 -7.79 217.1318 -15.64 289.4978 -1070.21 -56.7812 -41.08 -35.2329 -1070.21 -56.7812 -15.65 -33.3686 -47.01 -27.4295 0.0 0.0 -21.48 -3.9151 -1070.16 -54.8079 -1070.16 -54.8079 17.72 7.7779 41.14 74.3521 -3.85 125.1641 -31.22 127.1731 -41.01 209.3111 -21.49 264.1241 7.89 136.9141 -9.68 219.1091 -13.57 293.4141 -1070.16 -54.8079 -44.93 -33.3517 -1070.16 -54.8079 -17.59 -33.2415 -47.02 -23.5688 0.0 0.0 -15.69 -0.1217 -1068.29 -52.895 -1068.29 -52.895 15.65 3.8156 35.18 78.117 -11.73 127.083 -23.5 129.052 -33.29 207.381 -17.67 269.912 9.73 134.91 -7.83 219.108 -11.75 293.412 -1068.29 -52.895 -44.97 -31.4159 -1068.29 -52.895 -23.47 -31.4431 -43.03 -21.5242 0.0 0.0 -15.66 -0.0429 -25.51 78.2415 -41.05 131.1325 17.57 3.8351 35.22 74.3075 -11.74 130.9715 -19.53 132.9905 -27.41 213.2425 -11.75 279.7555 9.77 135.0215 -5.83 223.0155 -7.87 299.3515 -43.05 -25.5037 -39.21 -27.3843 -1064.36 -46.9755 -21.5 -29.3944 -41.11 -21.4824 0.0 0.0 -11.73 0.0099 -19.52 78.2328 -37.16 129.1678 11.8 1.9924 31.35 80.2058 -19.48 123.2848 -11.69 133.0988 -21.49 221.0948 -3.92 291.5538 11.73 135.0828 -3.82 225.0528 -5.93 305.2378 -1060.41 -46.9232 -37.21 -27.3904 -1060.41 -46.9232 -17.61 -31.3163 -41.14 -21.5792 0.0 0.0 -7.93 -1.975 -1056.59 -41.0764 -1056.59 -41.0764 13.55 3.9388 29.3 87.9926 -21.59 125.2926 -0.0599999999999 135.0066 -15.78 219.1836 -3.99 293.5016 13.65 137.0136 -1.99 226.9856 -2.02 309.1256 -1056.59 -41.0764 -35.27 -37.18686 -1056.59 -41.0764 -15.76 -36.24287 -43.01 -23.5048 0.0 0.0 -11.76 -1.9838 -1056.51 -41.0554 -1056.51 -41.0554 11.73 3.9384 17.67 78.3336 -25.41 121.3826 -1.97 129.1876 -15.62 217.1746 -11.71 279.8406 13.67 136.9406 0.00999999999999 221.1026 -0.00999999999999 301.3426 -1056.51 -41.0554 -35.26 -36.22594 -1056.51 -41.0554 -17.55 -36.22307 -1056.45 -39.1639 0.0 0.0 -7.78 -2.0417 -21.45 68.3991 -1056.45 -39.1639 2.02 5.8537 13.79 78.3131 -33.12 123.2071 0.0599999999999 125.1801 -13.62 213.1921 -9.73 281.7101 9.85 129.1211 0.0 217.0861 -1.85 297.3701 -1056.45 -39.1639 -1056.45 -39.1639 -1056.45 -39.1639 -17.58 -34.32143 -44.93 -33.3584 0.0 0.0 -11.76 -2.0485 -1054.6 -37.2492 -1054.6 -37.2492 5.86 3.8927 13.67 78.2518 -35.27 121.2598 -5.88 129.0878 -13.72 221.0298 -11.78 283.6098 5.84 136.8998 -0.0699999999999 224.9258 1.91 301.2488 -1054.6 -37.2492 -39.13 -32.39655 -1054.6 -37.2492 -15.75 -32.39687 -43.05 -32.3941 0.0 0.0 -13.68 -2.0936 -1054.56 -37.2379 -1054.56 -37.2379 5.89 3.872 3.94 78.1961 -44.95 113.4801 -9.77 136.8551 -15.63 223.0281 -11.69 283.6551 2.04 140.7631 -5.9 228.8481 0.0599999999999 303.2001 -1054.56 -37.2379 -35.25 -32.37212 -1054.56 -37.2379 -17.58 -32.37176 -43.1 -32.2249 0.0 0.0 -13.75 -9.6802 -1054.58 -37.0856 -1054.58 -37.0856 9.76 2.0146 3.93 74.4294 -46.98 109.7274 -15.63 129.2494 -21.53 225.0904 -11.77 299.4034 0.03 137.0284 -13.7 227.0594 -7.83 309.2174 -1054.58 -37.0856 -1054.58 -37.0856 -1054.58 -37.0856 -7.85 -32.20823 -46.99 -32.29892 0.0 0.0 1.91 -7.7792 -1054.62 -37.1441 -1054.62 -37.1441 -0.03 1.9682 -3.98 72.4379 -50.9 109.5369 -15.7 133.0859 -23.54 225.0529 -15.67 307.1969 -5.94 140.8509 -23.55 228.9309 -13.66 322.8409 -1054.62 -37.1441 -43.13 -32.27885 -1054.62 -37.1441 -21.55 -32.27378 -50.88 -32.22778 0.0 0.0 17.63 -3.8379 -1056.52 -37.0721 -1056.52 -37.0721 -15.67 2.0304 -23.45 70.5139 -64.505 107.6569 3.93 142.9799 -7.8 232.9229 -15.71 305.3389 -21.49 142.9869 -31.36 234.8509 -17.68 313.1529 -1056.52 -37.0721 -48.98 -32.21603 -1056.52 -37.0721 -29.35 -32.194 -54.74 -30.34505 0.0 0.0 19.59 -1.9296 1.98 64.5934 -1056.48 -35.1898 -17.6 1.9673 -31.27 64.6345 -64.493 97.8982 1.98 152.6522 -9.75 248.4762 -15.53 320.9242 -29.26 150.6982 -35.21 250.4242 -37.15 318.9432 -1056.48 -35.1898 -1056.48 -35.1898 -1056.48 -35.1898 -31.23 -30.30875 -54.783 -30.36436 0.0 0.0 23.5 -0.0626 -1054.55 -35.2169 -1054.55 -35.2169 -25.41 1.8984 -31.34 64.5714 -72.329 97.9141 3.97 142.8231 -0.05 228.9191 -5.86 309.1021 -33.26 140.8861 -46.92 223.0761 -45.02 301.2661 -1054.55 -35.2169 -50.88 -30.35064 -1054.55 -35.2169 -29.32 -30.34149 -56.69 -30.30349 0.0 0.0 19.64 -1.9147 -1052.57 -35.152 -1052.57 -35.152 -25.41 1.939 -41.08 66.619 -74.388 97.85 3.97 146.839 -0.00999999999999 240.723 -11.66 332.712 -42.93 144.828 -60.712 236.854 -76.202 326.796 -1052.57 -35.152 -52.779 -30.28794 -1052.57 -35.152 -31.27 -30.27497 -50.828 -26.48602 0.0 0.0 25.53 1.8982 -1044.75 -31.3349 -1044.75 -31.3349 -21.55 3.8327 -35.27 70.3681 -68.539 99.6661 11.83 142.7551 3.96 224.9941 -1.94 305.1441 -33.17 134.9501 -68.416 197.6251 -64.512 289.5051 -1044.75 -31.3349 -48.903 -26.47331 -1044.75 -31.3349 -29.33 -26.46009 -48.869 -22.56699 0.0 0.0 27.43 -0.0526 23.52 70.3903 -1040.82 -27.4264 -25.37 5.8276 -35.15 72.4398 -74.279 101.6966 13.75 138.9096 3.96 224.9236 2.02 299.3026 -31.31 134.9706 -76.201 185.8856 -66.519 273.8686 -1040.82 -27.4264 -1040.82 -27.4264 -1040.82 -27.4264 -29.3 -22.54627</_>
      <_>-33.35 -29.4115 0.0 0.0 -5.96 -1.9399 -1213.12 -101.799 -1213.12 -101.799 11.61 -0.006 -3.99 76.274 -41.17 136.851 -2.04 134.939 -13.8 217.09 -9.88 287.539 -15.8 136.887 -74.4 199.494 -64.56 279.66 -33.42 -41.1501 -29.42 -35.3182 -1213.12 -101.799 -3.96 -41.1757 -46.9 -31.2166 0.0 0.0 11.65 -1.8982 -1213.08 -101.747 -1213.08 -101.747 -1.99 0.062 -13.75 76.309 -47.06 134.962 -1.96 138.899 -15.61 217.097 -7.89 285.65 -29.36 136.939 -78.37 195.676 -80.22 273.901 -45.01 -44.9354 -37.25 -35.2319 -1213.08 -101.747 -17.68 -44.9573 -46.9 -31.1655 0.0 0.0 4.02 -1.936 -1211.02 -101.682 -1211.02 -101.682 -9.7 0.103 -17.53 76.365 -46.91 135.033 0.04 138.931 -13.67 211.389 -5.79 287.645 -29.33 136.965 -82.14 195.739 -93.95 266.183 -46.95 -39.0824 -44.86 -35.2327 -1211.02 -101.682 -19.52 -42.9881 -45.0 -29.3438 0.0 0.0 9.84 -0.0776 -1199.32 -99.8409 -1199.32 -99.8409 -5.84 1.9701 -13.66 78.2171 -44.93 138.8031 5.92 138.8691 -1.99 215.1551 7.83 287.5721 -25.4 136.8661 -78.26 191.7061 -95.88 260.1601 -48.8 -44.9937 -35.3 -33.3009 -1199.32 -99.8409 -17.6 -37.2744 -1195.38 -101.767 0.0 0.0 13.71 -0.072 2.07 62.644 -1195.38 -101.767 -13.64 0.054 -15.68 76.264 -44.97 138.838 3.94 131.034 0.0799999999999 203.517 5.93 281.786 -29.32 129.103 -76.23 189.777 -107.47 256.286 -1195.38 -101.767 -1195.38 -101.767 -5.81 -50.9446 -46.86 -46.913 -48.93 -29.3083 0.0 0.0 11.7 -1.8826 -1185.64 -101.678 -1185.64 -101.678 -7.83 0.114 -17.58 76.393 -37.19 139.016 9.81 121.333 7.82 203.467 13.73 281.788 -19.52 123.26 -72.37 187.817 -97.89 262.176 -1185.64 -101.678 -1185.64 -101.678 -5.92 -50.847 -37.15 -44.9297 -47.1 -33.2729 0.0 0.0 15.64 1.906 3.89 60.643 -1179.84 -103.723 -13.77 -0.005 -19.6 76.275 -43.13 136.858 3.9 125.166 3.88 199.474 19.52 273.908 -29.38 125.243 -76.38 183.838 -92.09 254.297 -1179.84 -103.723 -1179.84 -103.723 -5.96 -54.822 -44.99 -48.9281 -1168.05 -103.697 0.0 0.0 13.7 -0.03 -1168.05 -103.697 -1168.05 -103.697 -13.68 -0.031 -17.61 74.369 -33.34 135.036 11.78 121.281 11.78 197.544 29.38 271.957 -19.61 121.33 -74.34 181.95 -84.13 252.432 -1168.05 -103.697 -1168.05 -103.697 -1168.05 -103.697 -46.97 -50.9181 -1166.08 -105.657 0.0 0.0 17.62 3.903 9.79 56.739 -1166.08 -105.657 -15.69 -1.923 -21.55 74.333 -46.9 134.997 9.81 117.394 9.74 197.506 29.37 264.152 -19.53 119.338 -80.26 174.135 -88.05 246.489 -1166.08 -105.657 -1166.08 -105.657 -15.62 -50.8397 -48.86 -46.9817 -1148.47 -103.663 0.0 0.0 9.8 -1.925 -29.27 72.351 -54.78 88.02 -11.7 -1.832 -15.61 74.366 -31.37 131.096 13.68 121.38 15.69 195.654 41.12 264.125 -15.69 123.288 -66.51 176.094 -72.39 248.552 -1148.47 -103.663 -1148.47 -103.663 -3.89 -50.9183 -45.07 -50.8181 -1152.38 -107.606 0.0 0.0 27.33 5.891 -1152.38 -107.606 -1152.38 -107.606 -21.48 -3.91 -45.0 68.478 -50.8 119.402 0.03 115.45 -1.95 181.945 29.39 250.422 -35.27 115.464 -78.19 178.035 -76.25 244.667 -1152.38 -107.606 -1152.38 -107.606 -15.62 -54.8783 -52.82 -52.7283 -1142.57 -101.834 0.0 0.0 19.59 1.865 -1142.57 -101.834 -1142.57 -101.834 -21.47 1.844 -25.35 74.232 -42.99 117.271 2.03 117.301 -5.87 185.75 25.52 234.73 -33.19 119.269 -70.35 183.794 -64.52 256.198 -1142.57 -101.834 -1142.57 -101.834 -7.85 -54.8792 -54.7 -46.976 -1124.99 -101.696 0.0 0.0 9.8 -1.9231 -1124.99 -101.696 -1124.99 -101.696 -7.8 0.132 -15.64 72.409 -39.17 113.495 1.98 117.434 1.99 185.918 41.17 252.439 -23.42 119.417 -54.79 183.958 -46.91 252.485 -1124.99 -101.696 -1124.99 -101.696 1.96 -56.6661 -39.1 -46.9329 -1121.11 -101.723 0.0 0.0 13.69 -0.041 -1121.11 -101.723 -1121.11 -101.723 -13.68 0.067 -17.54 72.409 -45.0 117.405 -0.04 121.284 -1.96 183.919 35.23 250.478 -23.48 123.213 -51.0 183.942 -44.99 252.472 -1121.11 -101.723 -1121.11 -101.723 -1.99 -52.8269 -47.01 -48.8488 -1119.15 -99.8121 0.0 0.0 15.61 -0.0904 -15.69 37.1739 -1119.15 -99.8121 -15.59 1.9529 -21.56 78.1629 -50.96 117.3769 3.89 117.3669 -2.06 183.8869 29.24 252.4069 -21.54 121.2599 -52.86 181.9519 -41.11 252.4419 -1119.15 -99.8121 -1119.15 -99.8121 0.0 -56.7931 -46.97 -45.0777 -1111.27 -99.7146 0.0 0.0 9.8 -3.8198 -15.65 41.1804 -1111.27 -99.7146 -9.83 0.1232 -21.52 70.5364 -52.79 111.5994 7.95 113.5554 -5.87 185.8984 11.77 252.4344 -13.69 117.4344 -44.96 180.0644 -31.29 252.4914 -1111.27 -99.7146 -1111.27 -99.7146 -7.69 -60.511 -46.89 -46.924 -1107.4 -97.843 0.0 0.0 11.74 -1.9931 -1107.4 -97.843 -1107.4 -97.843 -7.85 1.902 -19.61 68.498 -52.9 113.419 9.83 123.27 -7.87 193.688 -5.8 256.286 -15.64 125.184 -48.88 178.083 -29.34 252.372 -1107.4 -97.843 -1107.4 -97.843 -5.94 -58.7282 -52.79 -54.7694 -1103.55 -93.9198 0.0 0.0 17.51 -1.9837 -0.0699999999999 56.7672 -1103.55 -93.9198 -13.79 3.8957 -19.61 70.4022 -54.87 113.4552 11.69 119.3502 -29.41 191.7062 -25.48 256.2602 -15.7 121.3212 -45.09 187.7962 -21.6 258.3012 -1103.55 -93.9198 -1103.55 -93.9198 -4.06 -56.8021 -46.99 -46.9368 -1099.55 -90.029 0.0 0.0 15.64 -1.9816 -1099.55 -90.029 -1099.55 -90.029 -13.72 7.7342 -23.49 72.341 -56.71 117.298 7.86 119.297 -29.4 191.698 -27.36 260.112 -15.62 121.24 -43.02 191.695 -17.62 264.105 -1099.55 -90.029 -1099.55 -90.029 -9.78 -52.9207 -45.03 -41.1093 -1089.8 -86.1746 0.0 0.0 13.72 -2.0035 -1089.8 -86.1746 -1089.8 -86.1746 -9.8 5.8065 -17.65 76.1364 -50.96 117.3384 9.74 123.1444 -37.23 199.4264 -41.11 254.2764 -9.84 125.1604 -31.29 201.4664 -5.93 271.8844 -1089.8 -86.1746 -1089.8 -86.1746 -7.88 -49.0956 -50.86 -47.023 -1085.88 -88.0254 0.0 0.0 13.71 -1.9476 -1085.88 -88.0254 -1085.88 -88.0254 -13.66 1.9774 -15.75 70.4486 -52.83 113.5126 1.96 117.4306 -48.98 179.9866 -64.58 246.5976 -13.66 121.2846 -27.41 191.7666 -3.95 268.0626 -1085.88 -88.0254 -1085.88 -88.0254 -13.62 -50.9001 -47.01 -46.8934 -1076.06 -86.1043 0.0 0.0 11.78 -2.0053 -17.57 62.6177 -1076.06 -86.1043 -7.84 3.8674 -13.66 76.2027 -48.89 121.2597 1.98 123.2767 -52.83 191.6967 -78.196 260.2207 -9.79 125.2677 -17.61 203.4087 7.78 273.8657 -1076.06 -86.1043 -1076.06 -86.1043 -5.89 -50.8832 -50.79 -46.925 -1068.29 -86.0312 0.0 0.0 11.72 -1.9851 -1068.29 -86.0312 -1068.29 -86.0312 -7.82 1.9756 -9.77 66.5738 -43.03 119.4068 -1.97 121.3538 -50.93 178.0978 -70.483 250.5448 -9.82 125.2458 -11.77 203.5338 15.56 270.0288 -1068.29 -86.0312 -1068.29 -86.0312 -5.86 -50.8301 -42.98 -44.8996 -1064.36 -84.1798 0.0 0.0 9.8 -2.0047 -1064.36 -84.1798 -1064.36 -84.1798 -7.86 1.9002 -9.76 66.5012 -41.05 123.2362 1.97 125.1142 -7.75 203.4562 9.79 266.0992 -7.91 127.1462 -7.91 205.4142 19.53 275.7992 -1064.36 -84.1798 -1064.36 -84.1798 -7.89 -49.0322 -46.95 -45.0477 -1056.59 -84.1075 0.0 0.0 13.67 -3.8816 -1056.59 -84.1075 -1056.59 -84.1075 -4.02 0.1033 -4.03 68.5425 -35.29 125.1785 11.61 123.2365 -0.05 203.5095 15.64 266.1255 -4.04 125.2825 -2.07 205.4415 21.49 270.0385 -1056.59 -84.1075 -1056.59 -84.1075 -3.99 -50.8617 -46.96 -44.9191 -41.13 -27.481 0.0 0.0 5.89 -2.0172 -1048.7 -82.2054 -1048.7 -82.2054 -3.89 1.9358 -3.92 66.4536 -31.33 125.1606 5.85 119.3076 5.8 203.4616 25.41 268.0066 -7.84 125.1686 3.85 205.3516 27.42 269.9256 -1048.7 -82.2054 -1048.7 -82.2054 -5.79 -54.8127 -37.13 -44.9657 -1042.85 -80.1721 0.0 0.0 11.7 -7.782 -1042.85 -80.1721 -1042.85 -80.1721 -1.99 3.9017 -1.98 68.5119 -29.32 129.1589 13.64 117.4859 5.82 199.6319 27.4 266.1289 -1.96 127.1969 -1.91 203.5289 31.35 270.0499 -1042.85 -80.1721 -1042.85 -80.1721 -4.0 -52.7563 -44.975 -42.9515 -44.998 -23.5321 0.0 0.0 11.68 -5.796 -1036.99 -76.2901 -1036.99 -76.2901 -2.02 5.8725 1.9 70.5109 -21.56 131.0749 13.64 121.3709 5.85 207.3599 33.28 270.0369 1.82 131.0879 3.81 209.3499 41.02 275.8529 -1036.99 -76.2901 -1036.99 -76.2901 -1036.99 -76.2901 -37.221 -39.1108 -37.233 -23.5067 0.0 0.0 -1025.29 -72.3953 -1025.29 -72.3953 -1025.29 -72.3953 1.86 5.8328 9.66 74.3047 -13.77 131.0707 11.68 123.2637 13.55 203.4927 42.98 269.9887 1.93 127.1887 7.75 207.3777 48.9 277.7967 -1025.29 -72.3953 -35.303 -33.2077 -1025.29 -72.3953 -29.39 -35.3108 -45.013 -25.37 0.0 0.0 11.7 -3.8759 -1025.25 -70.3691 -1025.25 -70.3691 -2.02 3.9578 2.0 70.4999 -15.62 125.3009 9.78 123.2679 1.96 203.5879 44.89 275.9569 -1.95 125.2379 -0.03 205.5299 46.96 279.8809 -1025.25 -70.3691 -45.037 -31.2028 -1025.25 -70.3691 -33.329 -35.1686</_>
      <_>-48.93 -29.3083 0.0 0.0 11.7 -1.8826 -1185.64 -101.678 -1185.64 -101.678 -7.83 0.114 -17.58 76.393 -37.19 139.016 9.81 121.333 7.82 203.467 13.73 281.788 -19.52 123.26 -72.37 187.817 -97.89 262.176 -1185.64 -101.678 -1185.64 -101.678 -5.92 -50.847 -37.15 -44.9297 -47.1 -33.2729 0.0 0.0 15.64 1.906 3.89 60.643 -1179.84 -103.723 -13.77 -0.005 -19.6 76.275 -43.13 136.858 3.9 125.166 3.88 199.474 19.52 273.908 -29.38 125.243 -76.38 183.838 -92.09 254.297 -1179.84 -103.723 -1179.84 -103.723 -5.96 -54.822 -44.99 -48.9281 -1168.05 -103.697 0.0 0.0 13.7 -0.03 -1168.05 -103.697 -1168.05 -103.697 -13.68 -0.031 -17.61 74.369 -33.34 135.036 11.78 121.281 11.78 197.544 29.38 271.957 -19.61 121.33 -74.34 181.95 -84.13 252.432 -1168.05 -103.697 -1168.05 -103.697 -1168.05 -103.697 -46.97 -50.9181 -1166.08 -105.657 0.0 0.0 17.62 3.903 9.79 56.739 -1166.08 -105.657 -15.69 -1.923 -21.55 74.333 -46.9 134.997 9.81 117.394 9.74 197.506 29.37 264.152 -19.53 119.338 -80.26 174.135 -88.05 246.489 -1166.08 -105.657 -1166.08 -105.657 -15.62 -50.8397 -48.86 -46.9817 -1148.47 -103.663 0.0 0.0 9.8 -1.925 -29.27 72.351 -54.78 88.02 -11.7 -1.832 -15.61 74.366 -31.37 131.096 13.68 121.38 15.69 195.654 41.12 264.125 -15.69 123.288 -66.51 176.094 -72.39 248.552 -1148.47 -103.663 -1148.47 -103.663 -3.89 -50.9183 -45.07 -50.8181 -1152.38 -107.606 0.0 0.0 27.33 5.891 -1152.38 -107.606 -1152.38 -107.606 -21.48 -3.91 -45.0 68.478 -50.8 119.402 0.03 115.45 -1.95 181.945 29.39 250.422 -35.27 115.464 -78.19 178.035 -76.25 244.667 -1152.38 -107.606 -1152.38 -107.606 -15.62 -54.8783 -52.82 -52.7283 -1142.57 -101.834 0.0 0.0 19.59 1.865 -1142.57 -101.834 -1142.57 -101.834 -21.47 1.844 -25.35 74.232 -42.99 117.271 2.03 117.301 -5.87 185.75 25.52 234.73 -33.19 119.269 -70.35 183.794 -64.52 256.198 -1142.57 -101.834 -1142.57 -101.834 -7.85 -54.8792 -54.7 -46.976 -1124.99 -101.696 0.0 0.0 9.8 -1.9231 -1124.99 -101.696 -1124.99 -101.696 -7.8 0.132 -15.64 72.409 -39.17 113.495 1.98 117.434 1.99 185.918 41.17 252.439 -23.42 119.417 -54.79 183.958 -46.91 252.485 -1124.99 -101.696 -1124.99 -101.696 1.96 -56.6661 -39.1 -46.9329 -1121.11 -101.723 0.0 0.0 13.69 -0.041 -1121.11 -101.723 -1121.11 -101.723 -13.68 0.067 -17.54 72.409 -45.0 117.405 -0.04 121.284 -1.96 183.919 35.23 250.478 -23.48 123.213 -51.0 183.942 -44.99 252.472 -1121.11 -101.723 -1121.11 -101.723 -1.99 -52.8269 -47.01 -48.8488 -1119.15 -99.8121 0.0 0.0 15.61 -0.0904 -15.69 37.1739 -1119.15 -99.8121 -15.59 1.9529 -21.56 78.1629 -50.96 117.3769 3.89 117.3669 -2.06 183.8869 29.24 252.4069 -21.54 121.2599 -52.86 181.9519 -41.11 252.4419 -1119.15 -99.8121 -1119.15 -99.8121 0.0 -56.7931 -46.97 -45.0777 -1111.27 -99.7146 0.0 0.0 9.8 -3.8198 -15.65 41.1804 -1111.27 -99.7146 -9.83 0.1232 -21.52 70.5364 -52.79 111.5994 7.95 113.5554 -5.87 185.8984 11.77 252.4344 -13.69 117.4344 -44.96 180.0644 -31.29 252.4914 -1111.27 -99.7146 -1111.27 -99.7146 -7.69 -60.511 -46.89 -46.924 -1107.4 -97.843 0.0 0.0 11.74 -1.9931 -1107.4 -97.843 -1107.4 -97.843 -7.85 1.902 -19.61 68.498 -52.9 113.419 9.83 123.27 -7.87 193.688 -5.8 256.286 -15.64 125.184 -48.88 178.083 -29.34 252.372 -1107.4 -97.843 -1107.4 -97.843 -5.94 -58.7282 -52.79 -54.7694 -1103.55 -93.9198 0.0 0.0 17.51 -1.9837 -0.0699999999999 56.7672 -1103.55 -93.9198 -13.79 3.8957 -19.61 70.4022 -54.87 113.4552 11.69 119.3502 -29.41 191.7062 -25.48 256.2602 -15.7 121.3212 -45.09 187.7962 -21.6 258.3012 -1103.55 -93.9198 -1103.55 -93.9198 -4.06 -56.8021 -46.99 -46.9368 -1099.55 -90.029 0.0 0.0 15.64 -1.9816 -1099.55 -90.029 -1099.55 -90.029 -13.72 7.7342 -23.49 72.341 -56.71 117.298 7.86 119.297 -29.4 191.698 -27.36 260.112 -15.62 121.24 -43.02 191.695 -17.62 264.105 -1099.55 -90.029 -1099.55 -90.029 -9.78 -52.9207 -45.03 -41.1093 -1089.8 -86.1746 0.0 0.0 13.72 -2.0035 -1089.8 -86.1746 -1089.8 -86.1746 -9.8 5.8065 -17.65 76.1364 -50.96 117.3384 9.74 123.1444 -37.23 199.4264 -41.11 254.2764 -9.84 125.1604 -31.29 201.4664 -5.93 271.8844 -1089.8 -86.1746 -1089.8 -86.1746 -7.88 -49.0956 -50.86 -47.023 -1085.88 -88.0254 0.0 0.0 13.71 -1.9476 -1085.88 -88.0254 -1085.88 -88.0254 -13.66 1.9774 -15.75 70.4486 -52.83 113.5126 1.96 117.4306 -48.98 179.9866 -64.58 246.5976 -13.66 121.2846 -27.41 191.7666 -3.95 268.0626 -1085.88 -88.0254 -1085.88 -88.0254 -13.62 -50.9001 -47.01 -46.8934 -1076.06 -86.1043 0.0 0.0 11.78 -2.0053 -17.57 62.6177 -1076.06 -86.1043 -7.84 3.8674 -13.66 76.2027 -48.89 121.2597 1.98 123.2767 -52.83 191.6967 -78.196 260.2207 -9.79 125.2677 -17.61 203.4087 7.78 273.8657 -1076.06 -86.1043 -1076.06 -86.1043 -5.89 -50.8832 -50.79 -46.925 -1068.29 -86.0312 0.0 0.0 11.72 -1.9851 -1068.29 -86.0312 -1068.29 -86.0312 -7.82 1.9756 -9.77 66.5738 -43.03 119.4068 -1.97 121.3538 -50.93 178.0978 -70.483 250.5448 -9.82 125.2458 -11.77 203.5338 15.56 270.0288 -1068.29 -86.0312 -1068.29 -86.0312 -5.86 -50.8301 -42.98 -44.8996 -1064.36 -84.1798 0.0 0.0 9.8 -2.0047 -1064.36 -84.1798 -1064.36 -84.1798 -7.86 1.9002 -9.76 66.5012 -41.05 123.2362 1.97 125.1142 -7.75 203.4562 9.79 266.0992 -7.91 127.1462 -7.91 205.4142 19.53 275.7992 -1064.36 -84.1798 -1064.36 -84.1798 -7.89 -49.0322 -46.95 -45.0477 -1056.59 -84.1075 0.0 0.0 13.67 -3.8816 -1056.59 -84.1075 -1056.59 -84.1075 -4.02 0.1033 -4.03 68.5425 -35.29 125.1785 11.61 123.2365 -0.05 203.5095 15.64 266.1255 -4.04 125.2825 -2.07 205.4415 21.49 270.0385 -1056.59 -84.1075 -1056.59 -84.1075 -3.99 -50.8617 -46.96 -44.9191 -41.13 -27.481 0.0 0.0 5.89 -2.0172 -1048.7 -82.2054 -1048.7 -82.2054 -3.89 1.9358 -3.92 66.4536 -31.33 125.1606 5.85 119.3076 5.8 203.4616 25.41 268.0066 -7.84 125.1686 3.85 205.3516 27.42 269.9256 -1048.7 -82.2054 -1048.7 -82.2054 -5.79 -54.8127 -37.13 -44.9657 -1042.85 -80.1721 0.0 0.0 11.7 -7.782 -1042.85 -80.1721 -1042.85 -80.1721 -1.99 3.9017 -1.98 68.5119 -29.32 129.1589 13.64 117.4859 5.82 199.6319 27.4 266.1289 -1.96 127.1969 -1.91 203.5289 31.35 270.0499 -1042.85 -80.1721 -1042.85 -80.1721 -4.0 -52.7563 -44.975 -42.9515 -44.998 -23.5321 0.0 0.0 11.68 -5.796 -1036.99 -76.2901 -1036.99 -76.2901 -2.02 5.8725 1.9 70.5109 -21.56 131.0749 13.64 121.3709 5.85 207.3599 33.28 270.0369 1.82 131.0879 3.81 209.3499 41.02 275.8529 -1036.99 -76.2901 -1036.99 -76.2901 -1036.99 -76.2901 -37.221 -39.1108 -37.233 -23.5067 0.0 0.0 -1025.29 -72.3953 -1025.29 -72.3953 -1025.29 -72.3953 1.86 5.8328 9.66 74.3047 -13.77 131.0707 11.68 123.2637 13.55 203.4927 42.98 269.9887 1.93 127.1887 7.75 207.3777 48.9 277.7967 -1025.29 -72.3953 -35.303 -33.2077 -1025.29 -72.3953 -29.39 -35.3108 -45.013 -25.37 0.0 0.0 11.7 -3.8759 -1025.25 -70.3691 -1025.25 -70.3691 -2.02 3.9578 2.0 70.4999 -15.62 125.3009 9.78 123.2679 1.96 203.5879 44.89 275.9569 -1.95 125.2379 -0.03 205.5299 46.96 279.8809 -1025.25 -70.3691 -45.037 -31.2028 -1025.25 -70.3691 -33.329 -35.1686 -48.92 -25.4095 0.0 0.0 13.69 -3.9635 -1025.22 -66.5329 -1025.22 -66.5329 -7.87 3.8334 -0.05 70.3961 -15.7 129.0551 11.77 129.1421 -2.05 207.3751 46.93 283.6421 -15.69 129.0561 -62.659 195.6181 -95.886 287.5951 -1025.22 -66.5329 -48.907 -29.3247 -1025.22 -66.5329 -35.251 -35.2526 -41.158 -21.4889 0.0 0.0 9.79 -7.8116 -1015.42 -62.6421 -1015.42 -62.6421 -3.92 5.7872 7.77 70.4979 -7.85 131.1159 9.77 131.0659 1.97 213.1959 48.92 275.8769 -9.79 131.0359 -52.79 209.2869 -84.118 303.2419 -1015.42 -62.6421 -1015.42 -62.6421 -1015.42 -62.6421 -37.149 -29.3923 -44.92 -23.428 0.0 0.0 5.85 -5.8563 -1007.6 -62.6072 -1007.6 -62.6072 0.04 3.9168 11.74 68.5248 -0.09 127.1838 1.94 127.1368 3.96 213.2298 50.95 275.8398 -13.639 123.2968 -31.374 209.3668 -33.246 305.2338 -1007.6 -62.6072 -45.008 -25.3967 -1007.6 -62.6072 -33.252 -35.2534 -37.234 -23.4381 0.0 0.0 -5.906 -3.8787 -997.873 -62.6116 -997.873 -62.6116 9.747 1.9684 17.577 68.4634 5.777 129.1394 -3.911 125.1844 3.837 207.3414 52.787 262.2134 -3.883 129.0864 -19.647 207.3784 -17.671 301.2834 -997.873 -62.6116 -37.163 -27.4241 -997.873 -62.6116 -19.655 -39.0304 -35.353 -21.3969 0.0 0.0 -5.934 -1.9592 -993.98 -60.6291 -993.98 -60.6291 11.69 0.0566 17.56 68.4439 5.782 123.3119 -0.104 117.4269 -4.009 199.5849 48.82 260.2729 3.826 121.2999 -15.742 199.5709 46.9 262.1919 -993.98 -60.6291 -35.324 -23.5301 -993.98 -60.6291 -27.424 -31.2995</_>
      <_>-1111.27 -99.7146 0.0 0.0 9.8 -3.8198 -15.65 41.1804 -1111.27 -99.7146 -9.83 0.1232 -21.52 70.5364 -52.79 111.5994 7.95 113.5554 -5.87 185.8984 11.77 252.4344 -13.69 117.4344 -44.96 180.0644 -31.29 252.4914 -1111.27 -99.7146 -1111.27 -99.7146 -7.69 -60.511 -46.89 -46.924 -1107.4 -97.843 0.0 0.0 11.74 -1.9931 -1107.4 -97.843 -1107.4 -97.843 -7.85 1.902 -19.61 68.498 -52.9 113.419 9.83 123.27 -7.87 193.688 -5.8 256.286 -15.64 125.184 -48.88 178.083 -29.34 252.372 -1107.4 -97.843 -1107.4 -97.843 -5.94 -58.7282 -52.79 -54.7694 -1103.55 -93.9198 0.0 0.0 17.51 -1.9837 -0.0699999999999 56.7672 -1103.55 -93.9198 -13.79 3.8957 -19.61 70.4022 -54.87 113.4552 11.69 119.3502 -29.41 191.7062 -25.48 256.2602 -15.7 121.3212 -45.09 187.7962 -21.6 258.3012 -1103.55 -93.9198 -1103.55 -93.9198 -4.06 -56.8021 -46.99 -46.9368 -1099.55 -90.029 0.0 0.0 15.64 -1.9816 -1099.55 -90.029 -1099.55 -90.029 -13.72 7.7342 -23.49 72.341 -56.71 117.298 7.86 119.297 -29.4 191.698 -27.36 260.112 -15.62 121.24 -43.02 191.695 -17.62 264.105 -1099.55 -90.029 -1099.55 -90.029 -9.78 -52.9207 -45.03 -41.1093 -1089.8 -86.1746 0.0 0.0 13.72 -2.0035 -1089.8 -86.1746 -1089.8 -86.1746 -9.8 5.8065 -17.65 76.1364 -50.96 117.3384 9.74 123.1444 -37.23 199.4264 -41.11 254.2764 -9.84 125.1604 -31.29 201.4664 -5.93 271.8844 -1089.8 -86.1746 -1089.8 -86.1746 -7.88 -49.0956 -50.86 -47.023 -1085.88 -88.0254 0.0 0.0 13.71 -1.9476 -1085.88 -88.0254 -1085.88 -88.0254 -13.66 1.9774 -15.75 70.4486 -52.83 113.5126 1.96 117.4306 -48.98 179.9866 -64.58 246.5976 -13.66 121.2846 -27.41 191.7666 -3.95 268.0626 -1085.88 -88.0254 -1085.88 -88.0254 -13.62 -50.9001 -47.01 -46.8934 -1076.06 -86.1043 0.0 0.0 11.78 -2.0053 -17.57 62.6177 -1076.06 -86.1043 -7.84 3.8674 -13.66 76.2027 -48.89 121.2597 1.98 123.2767 -52.83 191.6967 -78.196 260.2207 -9.79 125.2677 -17.61 203.4087 7.78 273.8657 -1076.06 -86.1043 -1076.06 -86.1043 -5.89 -50.8832 -50.79 -46.925 -1068.29 -86.0312 0.0 0.0 11.72 -1.9851 -1068.29 -86.0312 -1068.29 -86.0312 -7.82 1.9756 -9.77 66.5738 -43.03 119.4068 -1.97 121.3538 -50.93 178.0978 -70.483 250.5448 -9.82 125.2458 -11.77 203.5338 15.56 270.0288 -1068.29 -86.0312 -1068.29 -86.0312 -5.86 -50.8301 -42.98 -44.8996 -1064.36 -84.1798 0.0 0.0 9.8 -2.0047 -1064.36 -84.1798 -1064.36 -84.1798 -7.86 1.9002 -9.76 66.5012 -41.05 123.2362 1.97 125.1142 -7.75 203.4562 9.79 266.0992 -7.91 127.1462 -7.91 205.4142 19.53 275.7992 -1064.36 -84.1798 -1064.36 -84.1798 -7.89 -49.0322 -46.95 -45.0477 -1056.59 -84.1075 0.0 0.0 13.67 -3.8816 -1056.59 -84.1075 -1056.59 -84.1075 -4.02 0.1033 -4.03 68.5425 -35.29 125.1785 11.61 123.2365 -0.05 203.5095 15.64 266.1255 -4.04 125.2825 -2.07 205.4415 21.49 270.0385 -1056.59 -84.1075 -1056.59 -84.1075 -3.99 -50.8617 -46.96 -44.9191 -41.13 -27.481 0.0 0.0 5.89 -2.0172 -1048.7 -82.2054 -1048.7 -82.2054 -3.89 1.9358 -3.92 66.4536 -31.33 125.1606 5.85 119.3076 5.8 203.4616 25.41 268.0066 -7.84 125.1686 3.85 205.3516 27.42 269.9256 -1048.7 -82.2054 -1048.7 -82.2054 -5.79 -54.8127 -37.13 -44.9657 -1042.85 -80.1721 0.0 0.0 11.7 -7.782 -1042.85 -80.1721 -1042.85 -80.1721 -1.99 3.9017 -1.98 68.5119 -29.32 129.1589 13.64 117.4859 5.82 199.6319 27.4 266.1289 -1.96 127.1969 -1.91 203.5289 31.35 270.0499 -1042.85 -80.1721 -1042.85 -80.1721 -4.0 -52.7563 -44.975 -42.9515 -44.998 -23.5321 0.0 0.0 11.68 -5.796 -1036.99 -76.2901 -1036.99 -76.2901 -2.02 5.8725 1.9 70.5109 -21.56 131.0749 13.64 121.3709 5.85 207.3599 33.28 270.0369 1.82 131.0879 3.81 209.3499 41.02 275.8529 -1036.99 -76.2901 -1036.99 -76.2901 -1036.99 -76.2901 -37.221 -39.1108 -37.233 -23.5067 0.0 0.0 -1025.29 -72.3953 -1025.29 -72.3953 -1025.29 -72.3953 1.86 5.8328 9.66 74.3047 -13.77 131.0707 11.68 123.2637 13.55 203.4927 42.98 269.9887 1.93 127.1887 7.75 207.3777 48.9 277.7967 -1025.29 -72.3953 -35.303 -33.2077 -1025.29 -72.3953 -29.39 -35.3108 -45.013 -25.37 0.0 0.0 11.7 -3.8759 -1025.25 -70.3691 -1025.25 -70.3691 -2.02 3.9578 2.0 70.4999 -15.62 125.3009 9.78 123.2679 1.96 203.5879 44.89 275.9569 -1.95 125.2379 -0.03 205.5299 46.96 279.8809 -1025.25 -70.3691 -45.037 -31.2028 -1025.25 -70.3691 -33.329 -35.1686 -48.92 -25.4095 0.0 0.0 13.69 -3.9635 -1025.22 -66.5329 -1025.22 -66.5329 -7.87 3.8334 -0.05 70.3961 -15.7 129.0551 11.77 129.1421 -2.05 207.3751 46.93 283.6421 -15.69 129.0561 -62.659 195.6181 -95.886 287.5951 -1025.22 -66.5329 -48.907 -29.3247 -1025.22 -66.5329 -35.251 -35.2526 -41.158 -21.4889 0.0 0.0 9.79 -7.8116 -1015.42 -62.6421 -1015.42 -62.6421 -3.92 5.7872 7.77 70.4979 -7.85 131.1159 9.77 131.0659 1.97 213.1959 48.92 275.8769 -9.79 131.0359 -52.79 209.2869 -84.118 303.2419 -1015.42 -62.6421 -1015.42 -62.6421 -1015.42 -62.6421 -37.149 -29.3923 -44.92 -23.428 0.0 0.0 5.85 -5.8563 -1007.6 -62.6072 -1007.6 -62.6072 0.04 3.9168 11.74 68.5248 -0.09 127.1838 1.94 127.1368 3.96 213.2298 50.95 275.8398 -13.639 123.2968 -31.374 209.3668 -33.246 305.2338 -1007.6 -62.6072 -45.008 -25.3967 -1007.6 -62.6072 -33.252 -35.2534 -37.234 -23.4381 0.0 0.0 -5.906 -3.8787 -997.873 -62.6116 -997.873 -62.6116 9.747 1.9684 17.577 68.4634 5.777 129.1394 -3.911 125.1844 3.837 207.3414 52.787 262.2134 -3.883 129.0864 -19.647 207.3784 -17.671 301.2834 -997.873 -62.6116 -37.163 -27.4241 -997.873 -62.6116 -19.655 -39.0304 -35.353 -21.3969 0.0 0.0 -5.934 -1.9592 -993.98 -60.6291 -993.98 -60.6291 11.69 0.0566 17.56 68.4439 5.782 123.3119 -0.104 117.4269 -4.009 199.5849 48.82 260.2729 3.826 121.2999 -15.742 199.5709 46.9 262.1919 -993.98 -60.6291 -35.324 -23.5301 -993.98 -60.6291 -27.424 -31.2995 -43.034 -19.6644 0.0 0.0 -7.872 -1.9655 -991.994 -58.7443 -991.994 -58.7443 5.823 5.7864 17.566 70.4137 1.95 129.0577 3.852 121.2387 -1.986 203.4527 44.946 269.9277 7.794 125.1467 -19.575 205.3927 -13.764 305.1807 -991.994 -58.7443 -39.203 -25.4751 -991.994 -58.7443 -27.45 -33.328 -44.983 -15.6834 0.0 0.0 -5.911 -1.9268 -991.986 -56.7619 -991.986 -56.7619 3.883 1.9497 15.614 70.4391 0.051 134.9701 1.901 136.8871 -0.077 215.1811 29.304 268.0131 5.862 138.8861 -25.426 221.0841 -13.751 311.0671 -991.986 -56.7619 -44.927 -21.5249 -991.986 -56.7619 -25.474 -33.1879 -39.08 -19.5057 0.0 0.0 -13.674 1.9159 -984.117 -58.7159 -984.117 -58.7159 9.791 -0.0176 23.463 66.5291 7.885 129.0901 3.916 134.9771 7.903 217.1971 25.403 277.7941 9.835 136.9981 -17.562 226.9051 -9.804 307.1371 -984.117 -58.7159 -37.205 -23.5071 -984.117 -58.7159 -21.498 -35.1916 -37.122 -19.4496 0.0 0.0 -11.708 -1.8813 -980.191 -58.6655 -980.191 -58.6655 11.807 -1.853 27.369 64.5925 11.802 127.2225 0.0179999999999 134.9755 1.973 228.9225 -1.923 311.1255 13.712 137.0035 -5.853 228.9795 -7.824 309.2015 -980.191 -58.6655 -35.26 -23.4222 -980.191 -58.6655 -21.467 -33.1971 -41.095 -19.6027 0.0 0.0 -9.766 1.9306 -978.248 -58.7171 -978.248 -58.7171 11.772 -1.9297 27.422 68.4789 13.699 129.1339 9.799 134.9659 7.817 228.8989 -66.569 309.1359 15.737 136.9989 -13.64 228.9079 -46.9 309.0739 -978.248 -58.7171 -37.215 -23.5271 -978.248 -58.7171 -25.45 -33.3002 -44.959 -13.7386 0.0 0.0 -7.802 1.9363 -978.238 -58.7373 -978.238 -58.7373 11.714 -0.0488 27.332 70.3157 13.697 129.0847 13.679 133.0077 5.883 224.9607 -978.238 -58.7373 19.626 136.8977 -9.735 228.8447 -9.785 309.0637 -46.912 -23.5568 -41.053 -21.5293 -978.238 -58.7373 -19.541 -29.3767 -48.842 -19.5128 0.0 0.0 -7.766 1.9438 -978.192 -60.6679 -978.192 -60.6679 7.885 -1.9455 23.528 68.4331 11.843 131.0321 15.713 131.0091 -11.663 209.3401 -978.192 -60.6679 21.602 133.0421 -3.863 215.1861 0.037 297.3681 -978.192 -60.6679 -46.889 -23.5263 -978.192 -60.6679 -21.494 -33.2829 -48.866 -17.6311 0.0 0.0 -1.923 -1.9775 -15.584 48.9104 -978.215 -62.6136 2.041 1.967 17.708 66.5194 13.672 129.1534 27.445 131.1304 7.875 226.9574 -5.806 314.9754 15.699 135.0104 -29.247 221.0864 -54.753 305.1784 -978.215 -62.6136 -46.98 -25.3722 -978.215 -62.6136 -27.339 -31.3377 -48.878 -15.7102 0.0 0.0 -3.905 -0.0476 -29.248 33.2555 -50.863 27.3821 3.924 1.867 19.566 66.5277 7.88 131.0747 27.439 131.0967 5.889 225.0037 -7.774 314.9587 17.601 135.0167 -17.6 221.0647 -50.855 301.3457 -976.271 -64.5783 -47.007 -25.4315 -976.271 -64.5783 -27.384 -31.3109 -52.831 -23.4288 0.0 0.0 -9.702 -7.7642 -29.351 21.4858 -58.658 35.1617 5.871 3.8634 21.622 66.6123 5.9 136.9823 33.261 133.0783 5.907 234.8273 -9.794 318.9433 19.621 140.8843 -17.574 225.0613 -50.874 307.1803 -972.379 -64.5367 -46.969 -25.4552 -972.379 -64.5367 -27.412 -29.3865</_>
      <_>-1085.88 -88.0254 0.0 0.0 13.71 -1.9476 -1085.88 -88.0254 -1085.88 -88.0254 -13.66 1.9774 -15.75 70.4486 -52.83 113.5126 1.96 117.4306 -48.98 179.9866 -64.58 246.5976 -13.66 121.2846 -27.41 191.7666 -3.95 268.0626 -1085.88 -88.0254 -1085.88 -88.0254 -13.62 -50.9001 -47.01 -46.8934 -1076.06 -86.1043 0.0 0.0 11.78 -2.0053 -17.57 62.6177 -1076.06 -86.1043 -7.84 3.8674 -13.66 76.2027 -48.89 121.2597 1.98 123.2767 -52.83 191.6967 -78.196 260.2207 -9.79 125.2677 -17.61 203.4087 7.78 273.8657 -1076.06 -86.1043 -1076.06 -86.1043 -5.89 -50.8832 -50.79 -46.925 -1068.29 -86.0312 0.0 0.0 11.72 -1.9851 -1068.29 -86.0312 -1068.29 -86.0312 -7.82 1.9756 -9.77 66.5738 -43.03 119.4068 -1.97 121.3538 -50.93 178.0978 -70.483 250.5448 -9.82 125.2458 -11.77 203.5338 15.56 270.0288 -1068.29 -86.0312 -1068.29 -86.0312 -5.86 -50.8301 -42.98 -44.8996 -1064.36 -84.1798 0.0 0.0 9.8 -2.0047 -1064.36 -84.1798 -1064.36 -84.1798 -7.86 1.9002 -9.76 66.5012 -41.05 123.2362 1.97 125.1142 -7.75 203.4562 9.79 266.0992 -7.91 127.1462 -7.91 205.4142 19.53 275.7992 -1064.36 -84.1798 -1064.36 -84.1798 -7.89 -49.0322 -46.95 -45.0477 -1056.59 -84.1075 0.0 0.0 13.67 -3.8816 -1056.59 -84.1075 -1056.59 -84.1075 -4.02 0.1033 -4.03 68.5425 -35.29 125.1785 11.61 123.2365 -0.05 203.5095 15.64 266.1255 -4.04 125.2825 -2.07 205.4415 21.49 270.0385 -1056.59 -84.1075 -1056.59 -84.1075 -3.99 -50.8617 -46.96 -44.9191 -41.13 -27.481 0.0 0.0 5.89 -2.0172 -1048.7 -82.2054 -1048.7 -82.2054 -3.89 1.9358 -3.92 66.4536 -31.33 125.1606 5.85 119.3076 5.8 203.4616 25.41 268.0066 -7.84 125.1686 3.85 205.3516 27.42 269.9256 -1048.7 -82.2054 -1048.7 -82.2054 -5.79 -54.8127 -37.13 -44.9657 -1042.85 -80.1721 0.0 0.0 11.7 -7.782 -1042.85 -80.1721 -1042.85 -80.1721 -1.99 3.9017 -1.98 68.5119 -29.32 129.1589 13.64 117.4859 5.82 199.6319 27.4 266.1289 -1.96 127.1969 -1.91 203.5289 31.35 270.0499 -1042.85 -80.1721 -1042.85 -80.1721 -4.0 -52.7563 -44.975 -42.9515 -44.998 -23.5321 0.0 0.0 11.68 -5.796 -1036.99 -76.2901 -1036.99 -76.2901 -2.02 5.8725 1.9 70.5109 -21.56 131.0749 13.64 121.3709 5.85 207.3599 33.28 270.0369 1.82 131.0879 3.81 209.3499 41.02 275.8529 -1036.99 -76.2901 -1036.99 -76.2901 -1036.99 -76.2901 -37.221 -39.1108 -37.233 -23.5067 0.0 0.0 -1025.29 -72.3953 -1025.29 -72.3953 -1025.29 -72.3953 1.86 5.8328 9.66 74.3047 -13.77 131.0707 11.68 123.2637 13.55 203.4927 42.98 269.9887 1.93 127.1887 7.75 207.3777 48.9 277.7967 -1025.29 -72.3953 -35.303 -33.2077 -1025.29 -72.3953 -29.39 -35.3108 -45.013 -25.37 0.0 0.0 11.7 -3.8759 -1025.25 -70.3691 -1025.25 -70.3691 -2.02 3.9578 2.0 70.4999 -15.62 125.3009 9.78 123.2679 1.96 203.5879 44.89 275.9569 -1.95 125.2379 -0.03 205.5299 46.96 279.8809 -1025.25 -70.3691 -45.037 -31.2028 -1025.25 -70.3691 -33.329 -35.1686 -48.92 -25.4095 0.0 0.0 13.69 -3.9635 -1025.22 -66.5329 -1025.22 -66.5329 -7.87 3.8334 -0.05 70.3961 -15.7 129.0551 11.77 129.1421 -2.05 207.3751 46.93 283.6421 -15.69 129.0561 -62.659 195.6181 -95.886 287.5951 -1025.22 -66.5329 -48.907 -29.3247 -1025.22 -66.5329 -35.251 -35.2526 -41.158 -21.4889 0.0 0.0 9.79 -7.8116 -1015.42 -62.6421 -1015.42 -62.6421 -3.92 5.7872 7.77 70.4979 -7.85 131.1159 9.77 131.0659 1.97 213.1959 48.92 275.8769 -9.79 131.0359 -52.79 209.2869 -84.118 303.2419 -1015.42 -62.6421 -1015.42 -62.6421 -1015.42 -62.6421 -37.149 -29.3923 -44.92 -23.428 0.0 0.0 5.85 -5.8563 -1007.6 -62.6072 -1007.6 -62.6072 0.04 3.9168 11.74 68.5248 -0.09 127.1838 1.94 127.1368 3.96 213.2298 50.95 275.8398 -13.639 123.2968 -31.374 209.3668 -33.246 305.2338 -1007.6 -62.6072 -45.008 -25.3967 -1007.6 -62.6072 -33.252 -35.2534 -37.234 -23.4381 0.0 0.0 -5.906 -3.8787 -997.873 -62.6116 -997.873 -62.6116 9.747 1.9684 17.577 68.4634 5.777 129.1394 -3.911 125.1844 3.837 207.3414 52.787 262.2134 -3.883 129.0864 -19.647 207.3784 -17.671 301.2834 -997.873 -62.6116 -37.163 -27.4241 -997.873 -62.6116 -19.655 -39.0304 -35.353 -21.3969 0.0 0.0 -5.934 -1.9592 -993.98 -60.6291 -993.98 -60.6291 11.69 0.0566 17.56 68.4439 5.782 123.3119 -0.104 117.4269 -4.009 199.5849 48.82 260.2729 3.826 121.2999 -15.742 199.5709 46.9 262.1919 -993.98 -60.6291 -35.324 -23.5301 -993.98 -60.6291 -27.424 -31.2995 -43.034 -19.6644 0.0 0.0 -7.872 -1.9655 -991.994 -58.7443 -991.994 -58.7443 5.823 5.7864 17.566 70.4137 1.95 129.0577 3.852 121.2387 -1.986 203.4527 44.946 269.9277 7.794 125.1467 -19.575 205.3927 -13.764 305.1807 -991.994 -58.7443 -39.203 -25.4751 -991.994 -58.7443 -27.45 -33.328 -44.983 -15.6834 0.0 0.0 -5.911 -1.9268 -991.986 -56.7619 -991.986 -56.7619 3.883 1.9497 15.614 70.4391 0.051 134.9701 1.901 136.8871 -0.077 215.1811 29.304 268.0131 5.862 138.8861 -25.426 221.0841 -13.751 311.0671 -991.986 -56.7619 -44.927 -21.5249 -991.986 -56.7619 -25.474 -33.1879 -39.08 -19.5057 0.0 0.0 -13.674 1.9159 -984.117 -58.7159 -984.117 -58.7159 9.791 -0.0176 23.463 66.5291 7.885 129.0901 3.916 134.9771 7.903 217.1971 25.403 277.7941 9.835 136.9981 -17.562 226.9051 -9.804 307.1371 -984.117 -58.7159 -37.205 -23.5071 -984.117 -58.7159 -21.498 -35.1916 -37.122 -19.4496 0.0 0.0 -11.708 -1.8813 -980.191 -58.6655 -980.191 -58.6655 11.807 -1.853 27.369 64.5925 11.802 127.2225 0.0179999999999 134.9755 1.973 228.9225 -1.923 311.1255 13.712 137.0035 -5.853 228.9795 -7.824 309.2015 -980.191 -58.6655 -35.26 -23.4222 -980.191 -58.6655 -21.467 -33.1971 -41.095 -19.6027 0.0 0.0 -9.766 1.9306 -978.248 -58.7171 -978.248 -58.7171 11.772 -1.9297 27.422 68.4789 13.699 129.1339 9.799 134.9659 7.817 228.8989 -66.569 309.1359 15.737 136.9989 -13.64 228.9079 -46.9 309.0739 -978.248 -58.7171 -37.215 -23.5271 -978.248 -58.7171 -25.45 -33.3002 -44.959 -13.7386 0.0 0.0 -7.802 1.9363 -978.238 -58.7373 -978.238 -58.7373 11.714 -0.0488 27.332 70.3157 13.697 129.0847 13.679 133.0077 5.883 224.9607 -978.238 -58.7373 19.626 136.8977 -9.735 228.8447 -9.785 309.0637 -46.912 -23.5568 -41.053 -21.5293 -978.238 -58.7373 -19.541 -29.3767 -48.842 -19.5128 0.0 0.0 -7.766 1.9438 -978.192 -60.6679 -978.192 -60.6679 7.885 -1.9455 23.528 68.4331 11.843 131.0321 15.713 131.0091 -11.663 209.3401 -978.192 -60.6679 21.602 133.0421 -3.863 215.1861 0.037 297.3681 -978.192 -60.6679 -46.889 -23.5263 -978.192 -60.6679 -21.494 -33.2829 -48.866 -17.6311 0.0 0.0 -1.923 -1.9775 -15.584 48.9104 -978.215 -62.6136 2.041 1.967 17.708 66.5194 13.672 129.1534 27.445 131.1304 7.875 226.9574 -5.806 314.9754 15.699 135.0104 -29.247 221.0864 -54.753 305.1784 -978.215 -62.6136 -46.98 -25.3722 -978.215 -62.6136 -27.339 -31.3377 -48.878 -15.7102 0.0 0.0 -3.905 -0.0476 -29.248 33.2555 -50.863 27.3821 3.924 1.867 19.566 66.5277 7.88 131.0747 27.439 131.0967 5.889 225.0037 -7.774 314.9587 17.601 135.0167 -17.6 221.0647 -50.855 301.3457 -976.271 -64.5783 -47.007 -25.4315 -976.271 -64.5783 -27.384 -31.3109 -52.831 -23.4288 0.0 0.0 -9.702 -7.7642 -29.351 21.4858 -58.658 35.1617 5.871 3.8634 21.622 66.6123 5.9 136.9823 33.261 133.0783 5.907 234.8273 -9.794 318.9433 19.621 140.8843 -17.574 225.0613 -50.874 307.1803 -972.379 -64.5367 -46.969 -25.4552 -972.379 -64.5367 -27.412 -29.3865 -41.103 -11.7191 0.0 0.0 -9.786 -5.8475 -23.457 23.5124 -52.78 37.1133 11.759 7.7737 27.497 72.4419 11.784 140.8869 17.606 134.9579 -3.89 228.9279 -52.904 313.0089 25.411 140.8559 -3.919 228.9179 -41.082 311.0579 -966.514 -60.6601 -39.159 -21.451 -966.514 -60.6601 -21.476 -27.3811 -45.052 -13.7277 0.0 0.0 -5.979 -7.7861 -23.533 21.4535 -51.015 31.2754 11.718 5.906 29.296 70.4684 11.668 144.7364 27.307 134.9974 9.701 236.7334 -52.951 311.0694 27.291 144.7374 -7.912 228.9084 -43.086 309.1054 -964.633 -62.6136 -41.165 -23.4738 -964.633 -62.6136 -19.658 -27.4334 -41.182 -11.7767 0.0 0.0 -9.846 -7.8185 -29.405 15.6548 -58.763 25.3954 13.59 5.9402 29.375 70.4382 13.65 138.8802 27.327 131.1172 7.745 223.0462 -50.958 307.1472 27.324 138.8752 -5.908 223.0282 -41.119 305.2422 -962.667 -62.6198 -41.129 -23.425 -962.667 -62.6198 -17.696 -27.4205 -44.878 -7.933 0.0 0.0 -13.631 -5.8874 -31.299 15.5968 -62.489 25.3659 11.806 11.6246 29.496 74.2738 13.803 138.9298 15.686 134.9948 -3.849 222.9938 -48.91 309.0808 21.601 140.8348 -1.944 226.8998 -39.065 309.0978 -962.543 -58.7452 -42.96 -19.5496 -962.543 -58.7452 -19.49 -21.6218 -42.954 -9.7549 0.0 0.0 -13.628 -9.7458 -33.165 9.8497 -64.515 21.4676 11.77 7.9217 29.395 72.4233 11.806 144.7663 23.54 133.0793 9.858 226.9613 -52.734 307.1783 29.36 140.9083 -5.814 224.9853 -42.937 305.2633 -962.531 -62.5877 -42.925 -19.5397 -962.531 -62.5877 -21.425 -25.4215</_>
      <_>-41.13 -27.481 0.0 0.0 5.89 -2.0172 -1048.7 -82.2054 -1048.7 -82.2054 -3.89 1.9358 -3.92 66.4536 -31.33 125.1606 5.85 119.3076 5.8 203.4616 25.41 268.0066 -7.84 125.1686 3.85 205.3516 27.42 269.9256 -1048.7 -82.2054 -1048.7 -82.2054 -5.79 -54.8127 -37.13 -44.9657 -1042.85 -80.1721 0.0 0.0 11.7 -7.782 -1042.85 -80.1721 -1042.85 -80.1721 -1.99 3.9017 -1.98 68.5119 -29.32 129.1589 13.64 117.4859 5.82 199.6319 27.4 266.1289 -1.96 127.1969 -1.91 203.5289 31.35 270.0499 -1042.85 -80.1721 -1042.85 -80.1721 -4.0 -52.7563 -44.975 -42.9515 -44.998 -23.5321 0.0 0.0 11.68 -5.796 -1036.99 -76.2901 -1036.99 -76.2901 -2.02 5.8725 1.9 70.5109 -21.56 131.0749 13.64 121.3709 5.85 207.3599 33.28 270.0369 1.82 131.0879 3.81 209.3499 41.02 275.8529 -1036.99 -76.2901 -1036.99 -76.2901 -1036.99 -76.2901 -37.221 -39.1108 -37.233 -23.5067 0.0 0.0 -1025.29 -72.3953 -1025.29 -72.3953 -1025.29 -72.3953 1.86 5.8328 9.66 74.3047 -13.77 131.0707 11.68 123.2637 13.55 203.4927 42.98 269.9887 1.93 127.1887 7.75 207.3777 48.9 277.7967 -1025.29 -72.3953 -35.303 -33.2077 -1025.29 -72.3953 -29.39 -35.3108 -45.013 -25.37 0.0 0.0 11.7 -3.8759 -1025.25 -70.3691 -1025.25 -70.3691 -2.02 3.9578 2.0 70.4999 -15.62 125.3009 9.78 123.2679 1.96 203.5879 44.89 275.9569 -1.95 125.2379 -0.03 205.5299 46.96 279.8809 -1025.25 -70.3691 -45.037 -31.2028 -1025.25 -70.3691 -33.329 -35.1686 -48.92 -25.4095 0.0 0.0 13.69 -3.9635 -1025.22 -66.5329 -1025.22 -66.5329 -7.87 3.8334 -0.05 70.3961 -15.7 129.0551 11.77 129.1421 -2.05 207.3751 46.93 283.6421 -15.69 129.0561 -62.659 195.6181 -95.886 287.5951 -1025.22 -66.5329 -48.907 -29.3247 -1025.22 -66.5329 -35.251 -35.2526 -41.158 -21.4889 0.0 0.0 9.79 -7.8116 -1015.42 -62.6421 -1015.42 -62.6421 -3.92 5.7872 7.77 70.4979 -7.85 131.1159 9.77 131.0659 1.97 213.1959 48.92 275.8769 -9.79 131.0359 -52.79 209.2869 -84.118 303.2419 -1015.42 -62.6421 -1015.42 -62.6421 -1015.42 -62.6421 -37.149 -29.3923 -44.92 -23.428 0.0 0.0 5.85 -5.8563 -1007.6 -62.6072 -1007.6 -62.6072 0.04 3.9168 11.74 68.5248 -0.09 127.1838 1.94 127.1368 3.96 213.2298 50.95 275.8398 -13.639 123.2968 -31.374 209.3668 -33.246 305.2338 -1007.6 -62.6072 -45.008 -25.3967 -1007.6 -62.6072 -33.252 -35.2534 -37.234 -23.4381 0.0 0.0 -5.906 -3.8787 -997.873 -62.6116 -997.873 -62.6116 9.747 1.9684 17.577 68.4634 5.777 129.1394 -3.911 125.1844 3.837 207.3414 52.787 262.2134 -3.883 129.0864 -19.647 207.3784 -17.671 301.2834 -997.873 -62.6116 -37.163 -27.4241 -997.873 -62.6116 -19.655 -39.0304 -35.353 -21.3969 0.0 0.0 -5.934 -1.9592 -993.98 -60.6291 -993.98 -60.6291 11.69 0.0566 17.56 68.4439 5.782 123.3119 -0.104 117.4269 -4.009 199.5849 48.82 260.2729 3.826 121.2999 -15.742 199.5709 46.9 262.1919 -993.98 -60.6291 -35.324 -23.5301 -993.98 -60.6291 -27.424 -31.2995 -43.034 -19.6644 0.0 0.0 -7.872 -1.9655 -991.994 -58.7443 -991.994 -58.7443 5.823 5.7864 17.566 70.4137 1.95 129.0577 3.852 121.2387 -1.986 203.4527 44.946 269.9277 7.794 125.1467 -19.575 205.3927 -13.764 305.1807 -991.994 -58.7443 -39.203 -25.4751 -991.994 -58.7443 -27.45 -33.328 -44.983 -15.6834 0.0 0.0 -5.911 -1.9268 -991.986 -56.7619 -991.986 -56.7619 3.883 1.9497 15.614 70.4391 0.051 134.9701 1.901 136.8871 -0.077 215.1811 29.304 268.0131 5.862 138.8861 -25.426 221.0841 -13.751 311.0671 -991.986 -56.7619 -44.927 -21.5249 -991.986 -56.7619 -25.474 -33.1879 -39.08 -19.5057 0.0 0.0 -13.674 1.9159 -984.117 -58.7159 -984.117 -58.7159 9.791 -0.0176 23.463 66.5291 7.885 129.0901 3.916 134.9771 7.903 217.1971 25.403 277.7941 9.835 136.9981 -17.562 226.9051 -9.804 307.1371 -984.117 -58.7159 -37.205 -23.5071 -984.117 -58.7159 -21.498 -35.1916 -37.122 -19.4496 0.0 0.0 -11.708 -1.8813 -980.191 -58.6655 -980.191 -58.6655 11.807 -1.853 27.369 64.5925 11.802 127.2225 0.0179999999999 134.9755 1.973 228.9225 -1.923 311.1255 13.712 137.0035 -5.853 228.9795 -7.824 309.2015 -980.191 -58.6655 -35.26 -23.4222 -980.191 -58.6655 -21.467 -33.1971 -41.095 -19.6027 0.0 0.0 -9.766 1.9306 -978.248 -58.7171 -978.248 -58.7171 11.772 -1.9297 27.422 68.4789 13.699 129.1339 9.799 134.9659 7.817 228.8989 -66.569 309.1359 15.737 136.9989 -13.64 228.9079 -46.9 309.0739 -978.248 -58.7171 -37.215 -23.5271 -978.248 -58.7171 -25.45 -33.3002 -44.959 -13.7386 0.0 0.0 -7.802 1.9363 -978.238 -58.7373 -978.238 -58.7373 11.714 -0.0488 27.332 70.3157 13.697 129.0847 13.679 133.0077 5.883 224.9607 -978.238 -58.7373 19.626 136.8977 -9.735 228.8447 -9.785 309.0637 -46.912 -23.5568 -41.053 -21.5293 -978.238 -58.7373 -19.541 -29.3767 -48.842 -19.5128 0.0 0.0 -7.766 1.9438 -978.192 -60.6679 -978.192 -60.6679 7.885 -1.9455 23.528 68.4331 11.843 131.0321 15.713 131.0091 -11.663 209.3401 -978.192 -60.6679 21.602 133.0421 -3.863 215.1861 0.037 297.3681 -978.192 -60.6679 -46.889 -23.5263 -978.192 -60.6679 -21.494 -33.2829 -48.866 -17.6311 0.0 0.0 -1.923 -1.9775 -15.584 48.9104 -978.215 -62.6136 2.041 1.967 17.708 66.5194 13.672 129.1534 27.445 131.1304 7.875 226.9574 -5.806 314.9754 15.699 135.0104 -29.247 221.0864 -54.753 305.1784 -978.215 -62.6136 -46.98 -25.3722 -978.215 -62.6136 -27.339 -31.3377 -48.878 -15.7102 0.0 0.0 -3.905 -0.0476 -29.248 33.2555 -50.863 27.3821 3.924 1.867 19.566 66.5277 7.88 131.0747 27.439 131.0967 5.889 225.0037 -7.774 314.9587 17.601 135.0167 -17.6 221.0647 -50.855 301.3457 -976.271 -64.5783 -47.007 -25.4315 -976.271 -64.5783 -27.384 -31.3109 -52.831 -23.4288 0.0 0.0 -9.702 -7.7642 -29.351 21.4858 -58.658 35.1617 5.871 3.8634 21.622 66.6123 5.9 136.9823 33.261 133.0783 5.907 234.8273 -9.794 318.9433 19.621 140.8843 -17.574 225.0613 -50.874 307.1803 -972.379 -64.5367 -46.969 -25.4552 -972.379 -64.5367 -27.412 -29.3865 -41.103 -11.7191 0.0 0.0 -9.786 -5.8475 -23.457 23.5124 -52.78 37.1133 11.759 7.7737 27.497 72.4419 11.784 140.8869 17.606 134.9579 -3.89 228.9279 -52.904 313.0089 25.411 140.8559 -3.919 228.9179 -41.082 311.0579 -966.514 -60.6601 -39.159 -21.451 -966.514 -60.6601 -21.476 -27.3811 -45.052 -13.7277 0.0 0.0 -5.979 -7.7861 -23.533 21.4535 -51.015 31.2754 11.718 5.906 29.296 70.4684 11.668 144.7364 27.307 134.9974 9.701 236.7334 -52.951 311.0694 27.291 144.7374 -7.912 228.9084 -43.086 309.1054 -964.633 -62.6136 -41.165 -23.4738 -964.633 -62.6136 -19.658 -27.4334 -41.182 -11.7767 0.0 0.0 -9.846 -7.8185 -29.405 15.6548 -58.763 25.3954 13.59 5.9402 29.375 70.4382 13.65 138.8802 27.327 131.1172 7.745 223.0462 -50.958 307.1472 27.324 138.8752 -5.908 223.0282 -41.119 305.2422 -962.667 -62.6198 -41.129 -23.425 -962.667 -62.6198 -17.696 -27.4205 -44.878 -7.933 0.0 0.0 -13.631 -5.8874 -31.299 15.5968 -62.489 25.3659 11.806 11.6246 29.496 74.2738 13.803 138.9298 15.686 134.9948 -3.849 222.9938 -48.91 309.0808 21.601 140.8348 -1.944 226.8998 -39.065 309.0978 -962.543 -58.7452 -42.96 -19.5496 -962.543 -58.7452 -19.49 -21.6218 -42.954 -9.7549 0.0 0.0 -13.628 -9.7458 -33.165 9.8497 -64.515 21.4676 11.77 7.9217 29.395 72.4233 11.806 144.7663 23.54 133.0793 9.858 226.9613 -52.734 307.1783 29.36 140.9083 -5.814 224.9853 -42.937 305.2633 -962.531 -62.5877 -42.925 -19.5397 -962.531 -62.5877 -21.425 -25.4215 -44.978 -7.8595 0.0 0.0 -13.621 -7.883 -33.18 9.8235 -66.528 19.5336 11.734 9.888 29.43 74.3788 13.697 146.7478 21.583 131.1198 11.787 223.0648 -962.55 -60.6462 29.437 138.9368 -9.718 223.0588 -44.944 305.1988 -962.55 -60.6462 -44.896 -17.6173 -962.55 -60.6462 -21.491 -23.4339 -44.941 -7.8037 0.0 0.0 -13.703 -9.7597 -33.224 7.8734 -70.455 9.8629 11.738 11.7579 31.263 74.3554 15.588 144.8114 17.586 133.0204 -29.329 215.2484 -56.709 305.2064 31.269 140.8754 -5.876 225.0064 -42.984 307.1584 -960.645 -60.6406 -41.087 -17.5593 -960.645 -60.6406 -15.676 -23.4535 -45.078 -11.6993 0.0 0.0 -13.702 -9.8624 -33.301 5.899 -70.438 5.8554 13.589 9.7377 31.192 74.3053 13.662 142.7943 15.628 131.0253 -21.546 217.1493 -52.877 303.2283 29.342 138.8903 -0.0359999999999 223.0413 -39.159 303.2443 -960.685 -64.5927 -44.975 -21.5172 -960.685 -64.5927 -19.599 -25.4453 -46.943 -13.6618 0.0 0.0 -13.743 -11.7283 -39.106 3.9207 -74.345 2.0755 13.658 5.985 29.373 72.4415 15.628 140.8565 11.715 129.2005 -21.546 219.1815 -52.847 301.3365 29.325 138.9455 0.016 223.1185 -39.116 301.3315 -960.667 -66.4825 -45.066 -25.3177 -960.667 -66.4825 -21.572 -27.3832 -48.933 -13.6698 0.0 0.0 -13.705 -11.7253 -41.113 3.9417 -80.249 3.9711 13.604 7.8289 31.183 72.3758 15.695 136.9958 9.767 129.1278 -23.501 219.1648 -52.845 303.2848 27.364 136.9718 0.013 223.1078 -39.149 303.2858 -960.67 -66.5052 -46.959 -21.5265 -960.67 -66.5052 -25.466 -27.3618</_>
      <_>-44.978 -7.8595 0.0 0.0 -13.621 -7.883 -33.18 9.8235 -66.528 19.5336 11.734 9.888 29.43 74.3788 13.697 146.7478 21.583 131.1198 11.787 223.0648 -962.55 -60.6462 29.437 138.9368 -9.718 223.0588 -44.944 305.1988 -962.55 -60.6462 -44.896 -17.6173 -962.55 -60.6462 -21.491 -23.4339 -44.941 -7.8037 0.0 0.0 -13.703 -9.7597 -33.224 7.8734 -70.455 9.8629 11.738 11.7579 31.263 74.3554 15.588 144.8114 17.586 133.0204 -29.329 215.2484 -56.709 305.2064 31.269 140.8754 -5.876 225.0064 -42.984 307.1584 -960.645 -60.6406 -41.087 -17.5593 -960.645 -60.6406 -15.676 -23.4535 -45.078 -11.6993 0.0 0.0 -13.702 -9.8624 -33.301 5.899 -70.438 5.8554 13.589 9.7377 31.192 74.3053 13.662 142.7943 15.628 131.0253 -21.546 217.1493 -52.877 303.2283 29.342 138.8903 -0.0359999999999 223.0413 -39.159 303.2443 -960.685 -64.5927 -44.975 -21.5172 -960.685 -64.5927 -19.599 -25.4453 -46.943 -13.6618 0.0 0.0 -13.743 -11.7283 -39.106 3.9207 -74.345 2.0755 13.658 5.985 29.373 72.4415 15.628 140.8565 11.715 129.2005 -21.546 219.1815 -52.847 301.3365 29.325 138.9455 0.016 223.1185 -39.116 301.3315 -960.667 -66.4825 -45.066 -25.3177 -960.667 -66.4825 -21.572 -27.3832 -48.933 -13.6698 0.0 0.0 -13.705 -11.7253 -41.113 3.9417 -80.249 3.9711 13.604 7.8289 31.183 72.3758 15.695 136.9958 9.767 129.1278 -23.501 219.1648 -52.845 303.2848 27.364 136.9718 0.013 223.1078 -39.149 303.2858 -960.67 -66.5052 -46.959 -21.5265 -960.67 -66.5052 -25.466 -27.3618 -48.89 -11.8274 0.0 0.0 -15.606 -11.7303 -44.947 1.8818 -88.001 3.8413 11.788 9.7378 29.419 74.3492 17.638 138.9092 5.969 129.0862 -23.387 219.0892 -50.787 303.2512 27.446 136.9222 3.982 224.9992 -37.121 303.2652 -960.586 -66.5468 -46.855 -17.6506 -960.586 -66.5468 -27.318 -25.501 -48.927 -13.6229 0.0 0.0 -13.693 -11.7259 -44.962 1.98 -89.913 1.9813 9.796 9.8252 31.271 74.4159 17.654 138.9659 13.728 131.1389 -25.367 219.1529 -56.699 299.3949 23.52 138.9799 0.02 223.1169 -39.097 301.3509 -960.613 -68.4351 -46.872 -17.5768 -960.613 -68.4351 -27.344 -27.3017 -52.817 -13.6056 0.0 0.0 -13.734 -11.7466 -45.11 0.086 -90.003 1.933 9.774 11.7594 31.312 76.3082 19.584 140.8072 11.733 129.1632 -27.396 213.2902 -54.815 297.4292 29.341 138.9332 -0.024 223.0532 -35.261 301.2972 -958.718 -68.4618 -45.119 -17.5567 -958.718 -68.4618 -27.398 -27.3262 -52.856 -11.7047 0.0 0.0 -13.699 -3.984 -54.81 -0.0044 -90.059 0.0574 7.86 9.7832 33.16 74.3747 19.607 138.9557 7.832 134.9797 -27.355 221.1197 -50.888 299.3747 25.416 140.8627 1.958 232.8137 -33.303 301.3227 -60.709 -31.2822 -45.109 -17.557 -958.706 -70.4293 -27.364 -27.4171 -46.976 -5.8889 0.0 0.0 -13.728 -5.88 -54.788 -0.00319999999999 -93.938 1.9802 9.8 11.7199 33.253 76.2261 19.671 138.9721 7.848 129.1541 -25.438 219.1661 -54.759 299.3751 25.483 138.9121 0.019 228.9451 -39.078 299.4161 -50.884 -19.5834 -44.947 -15.7036 -958.681 -70.4079 -25.399 -29.2833 -46.928 -5.8299 0.0 0.0 -15.605 -3.9758 -50.872 -0.0171 -958.668 -70.4201 9.797 9.8193 33.279 76.2249 21.603 138.8459 3.996 129.1169 -21.483 221.0839 -46.988 301.2989 23.518 136.9919 7.843 228.9149 -29.335 305.2299 -47.116 -17.6755 -44.95 -15.672 -958.668 -70.4201 -27.312 -27.3743 -46.969 -5.8531 0.0 0.0 -13.751 -3.9466 -956.763 -70.4338 -956.763 -70.4338 9.792 9.7887 35.184 74.3752 25.391 138.8342 5.878 127.1822 -21.516 219.1122 -45.082 303.2692 27.357 136.9312 9.74 226.9562 -25.473 305.2292 -56.776 -31.2472 -43.135 -15.6497 -956.763 -70.4338 -27.423 -23.4932 -48.899 -5.8475 0.0 0.0 -15.637 -5.8556 -46.996 0.0229 -82.175 0.0901 9.842 9.8266 35.253 74.3865 25.472 136.9605 5.913 125.2965 -19.535 217.1685 -43.098 303.2885 27.392 135.0125 9.777 225.0105 -21.486 309.1135 -956.725 -70.4135 -45.011 -15.554 -956.725 -70.4135 -29.367 -21.5253 -45.021 -2.0707 0.0 0.0 -15.637 -9.8217 -45.083 1.9882 -86.079 1.9517 9.808 13.6487 35.195 78.1593 23.541 140.7553 5.918 129.0843 -19.585 221.0183 -46.979 309.1083 25.426 138.8193 7.836 230.8023 -23.492 312.9693 -956.748 -68.5207 -44.986 -11.8117 -956.748 -68.5207 -33.252 -17.7311 -43.064 -1.9718 0.0 0.0 -17.589 -9.817 -954.783 -68.5123 -954.783 -68.5123 11.778 13.6458 37.208 78.1617 27.401 138.9007 7.858 127.1577 -17.616 219.1057 -44.987 309.1017 29.332 136.8947 9.797 228.8547 -19.576 312.9817 -954.783 -68.5123 -41.036 -11.7527 -954.783 -68.5123 -27.402 -19.5975 -41.142 -1.979 0.0 0.0 -15.704 -7.9044 -50.922 1.9608 -82.242 3.8697 15.647 13.6154 41.097 78.1824 29.355 140.8544 11.691 127.1254 -15.68 219.1114 -39.177 310.9864 37.099 136.8944 19.501 228.8794 7.792 312.9484 -950.913 -68.5296 -37.261 -9.8536 -950.913 -68.5296 -25.512 -17.7263 -41.137 -2.0383 0.0 0.0 -15.718 -5.8641 -52.892 0.0387 -84.136 1.9664 15.657 11.7702 42.933 76.2829 31.301 138.8619 11.709 127.1769 -13.737 219.1629 -37.289 309.1019 35.204 136.9299 21.491 230.8589 11.696 311.0669 -950.912 -70.4391 -37.316 -7.857 -950.912 -70.4391 -33.284 -19.5562 -43.065 -5.8831 0.0 0.0 -17.601 -3.9555 -52.825 3.9491 -84.116 5.865 15.676 11.6726 41.161 74.3105 33.251 136.8915 11.788 129.1675 -15.659 219.1605 -37.218 307.2075 37.172 136.9255 23.475 228.9505 11.742 309.1605 -950.876 -72.3735 -46.974 -17.5218 -950.876 -72.3735 -37.176 -21.4773 -41.067 -2.0105 0.0 0.0 -17.581 -3.9632 -950.866 -70.4822 -950.866 -70.4822 15.656 13.5964 43.028 72.3578 39.164 132.9998 5.849 113.4558 -15.67 209.3018 -37.239 299.3348 29.327 123.2368 15.641 217.1178 -17.563 301.2778 -950.866 -70.4822 -37.244 -7.9112 -950.866 -70.4822 -27.395 -17.6986 -41.099 -3.8785 0.0 0.0 -17.628 -3.9689 -950.896 -72.3742 -950.896 -72.3742 17.569 11.7437 43.006 72.3518 40.967 131.1088 3.903 117.4018 -19.552 209.3728 -43.056 299.3658 27.416 123.2928 11.741 217.1708 -19.635 301.3168 -950.896 -72.3742 -39.13 -9.7982 -950.896 -72.3742 -27.445 -19.5104 -39.163 -3.9637 0.0 0.0 -17.621 -5.8026 -950.915 -74.3348 -950.915 -74.3348 17.554 9.7629 42.972 70.4282 39.081 131.1062 7.72 119.3082 -15.683 207.4212 -39.183 295.4852 29.301 123.2932 17.573 215.1972 5.798 299.3612 -950.915 -74.3348 -37.25 -7.9008 -950.915 -74.3348 -29.412 -21.4806 -39.188 -3.895 0.0 0.0 -19.495 -5.8269 -41.078 9.7636 -82.134 11.7723 17.651 9.7799 43.068 70.4226 39.135 131.0636 5.891 119.3176 -15.647 209.3166 -39.1 297.3716 29.37 125.1776 17.628 215.1996 3.922 305.1906 -950.859 -74.3644 -39.097 -5.9944 -950.859 -74.3644 -27.405 -19.6267 -43.005 -7.757 0.0 0.0 -19.489 -7.7932 -52.786 9.8175 -97.792 19.5882 17.652 5.9538 43.127 68.412 41.112 127.15 7.796 119.366 -19.501 211.303 -41.08 297.418 29.323 129.102 15.665 221.066 -19.521 301.293 -950.859 -78.25 -39.172 -9.8971 -950.859 -78.25 -31.295 -23.4733 -41.103 -7.8039 0.0 0.0 -17.651 -7.8036 -54.76 17.5873 -103.717 23.4452 19.586 5.9247 45.027 66.4712 43.046 121.2582 9.762 117.3922 -13.714 209.2782 -37.168 293.4532 31.34 123.2482 23.474 213.2482 11.761 303.2492 -948.916 -78.2838 -37.228 -11.7455 -948.916 -78.2838 -25.429 -23.5422 -39.162 -5.836 0.0 0.0 -17.574 -9.6908 -45.013 17.6046 -86.174 25.4504 19.505 7.8554 45.011 66.5854 43.022 121.3694 11.612 117.4104 -15.673 205.4814 -37.276 291.5884 31.286 123.2894 21.471 211.3884 11.677 301.3524 -948.965 -78.2256 -37.214 -9.7591 -948.965 -78.2256 -21.582 -23.3694 -39.091 -5.8619 0.0 0.0 -17.613 -7.8564 -48.851 21.4908 -93.852 35.2228 19.547 7.7943 46.994 68.3858 48.9 121.3238 11.68 119.3528 -13.704 209.3108 -37.136 293.4858 33.244 127.1468 23.484 215.2168 9.807 303.2508 -948.901 -78.2832 -37.144 -9.7923 -948.901 -78.2832 -21.521 -21.5736 -37.219 -3.9434 0.0 0.0 -17.606 -7.8708 -48.928 23.5124 -91.942 39.0274 17.682 7.8131 47.006 68.3764 50.881 121.2584 11.76 117.4164 -13.641 209.2814 -35.228 295.4114 33.302 125.1634 25.458 215.1774 11.777 305.2054 -948.883 -78.2876 -37.136 -9.7581 -948.883 -78.2876 -21.473 -21.4842 -41.093 -5.8675 0.0 0.0 -17.652 -9.7232 -48.907 23.4667 -91.986 45.0107 19.572 5.8416 48.857 64.5767 46.986 119.3267 13.703 115.4057 -11.782 203.4697 -33.321 291.4967 42.959 119.3457 27.353 209.3707 13.673 301.2857 -946.99 -80.2323 -37.191 -11.68 -946.99 -80.2323 -17.712 -21.5421 -41.156 -3.9531 0.0 0.0 -15.797 -9.7622 -49.014 25.3932 -95.929 48.9282 21.404 5.8908 48.876 66.4302 46.904 121.2642 13.642 117.3622 -5.938 207.4062 -31.426 291.5342 41.008 123.2702 31.186 215.1872 25.347 301.2892 -947.041 -80.2318 -37.252 -11.6675 -947.041 -80.2318 -17.756 -21.5262 -41.083 -7.7747 0.0 0.0 -17.651 -7.7964 -48.956 29.3679 -93.824 60.6209 19.579 3.8936 48.957 64.4659 46.999 117.4259 15.6 115.4059 -9.755 203.4539 -33.273 289.5569 43.015 119.3549 29.377 209.3299 15.673 299.3489 -946.945 -82.1741 -37.198 -13.6265 -946.945 -82.1741 -19.535 -25.3858</_>
      <_>-48.89 -11.8274 0.0 0.0 -15.606 -11.7303 -44.947 1.8818 -88.001 3.8413 11.788 9.7378 29.419 74.3492 17.638 138.9092 5.969 129.0862 -23.387 219.0892 -50.787 303.2512 27.446 136.9222 3.982 224.9992 -37.121 303.2652 -960.586 -66.5468 -46.855 -17.6506 -960.586 -66.5468 -27.318 -25.501 -48.927 -13.6229 0.0 0.0 -13.693 -11.7259 -44.962 1.98 -89.913 1.9813 9.796 9.8252 31.271 74.4159 17.654 138.9659 13.728 131.1389 -25.367 219.1529 -56.699 299.3949 23.52 138.9799 0.02 223.1169 -39.097 301.3509 -960.613 -68.4351 -46.872 -17.5768 -960.613 -68.4351 -27.344 -27.3017 -52.817 -13.6056 0.0 0.0 -13.734 -11.7466 -45.11 0.086 -90.003 1.933 9.774 11.7594 31.312 76.3082 19.584 140.8072 11.733 129.1632 -27.396 213.2902 -54.815 297.4292 29.341 138.9332 -0.024 223.0532 -35.261 301.2972 -958.718 -68.4618 -45.119 -17.5567 -958.718 -68.4618 -27.398 -27.3262 -52.856 -11.7047 0.0 0.0 -13.699 -3.984 -54.81 -0.0044 -90.059 0.0574 7.86 9.7832 33.16 74.3747 19.607 138.9557 7.832 134.9797 -27.355 221.1197 -50.888 299.3747 25.416 140.8627 1.958 232.8137 -33.303 301.3227 -60.709 -31.2822 -45.109 -17.557 -958.706 -70.4293 -27.364 -27.4171 -46.976 -5.8889 0.0 0.0 -13.728 -5.88 -54.788 -0.00319999999999 -93.938 1.9802 9.8 11.7199 33.253 76.2261 19.671 138.9721 7.848 129.1541 -25.438 219.1661 -54.759 299.3751 25.483 138.9121 0.019 228.9451 -39.078 299.4161 -50.884 -19.5834 -44.947 -15.7036 -958.681 -70.4079 -25.399 -29.2833 -46.928 -5.8299 0.0 0.0 -15.605 -3.9758 -50.872 -0.0171 -958.668 -70.4201 9.797 9.8193 33.279 76.2249 21.603 138.8459 3.996 129.1169 -21.483 221.0839 -46.988 301.2989 23.518 136.9919 7.843 228.9149 -29.335 305.2299 -47.116 -17.6755 -44.95 -15.672 -958.668 -70.4201 -27.312 -27.3743 -46.969 -5.8531 0.0 0.0 -13.751 -3.9466 -956.763 -70.4338 -956.763 -70.4338 9.792 9.7887 35.184 74.3752 25.391 138.8342 5.878 127.1822 -21.516 219.1122 -45.082 303.2692 27.357 136.9312 9.74 226.9562 -25.473 305.2292 -56.776 -31.2472 -43.135 -15.6497 -956.763 -70.4338 -27.423 -23.4932 -48.899 -5.8475 0.0 0.0 -15.637 -5.8556 -46.996 0.0229 -82.175 0.0901 9.842 9.8266 35.253 74.3865 25.472 136.9605 5.913 125.2965 -19.535 217.1685 -43.098 303.2885 27.392 135.0125 9.777 225.0105 -21.486 309.1135 -956.725 -70.4135 -45.011 -15.554 -956.725 -70.4135 -29.367 -21.5253 -45.021 -2.0707 0.0 0.0 -15.637 -9.8217 -45.083 1.9882 -86.079 1.9517 9.808 13.6487 35.195 78.1593 23.541 140.7553 5.918 129.0843 -19.585 221.0183 -46.979 309.1083 25.426 138.8193 7.836 230.8023 -23.492 312.9693 -956.748 -68.5207 -44.986 -11.8117 -956.748 -68.5207 -33.252 -17.7311 -43.064 -1.9718 0.0 0.0 -17.589 -9.817 -954.783 -68.5123 -954.783 -68.5123 11.778 13.6458 37.208 78.1617 27.401 138.9007 7.858 127.1577 -17.616 219.1057 -44.987 309.1017 29.332 136.8947 9.797 228.8547 -19.576 312.9817 -954.783 -68.5123 -41.036 -11.7527 -954.783 -68.5123 -27.402 -19.5975 -41.142 -1.979 0.0 0.0 -15.704 -7.9044 -50.922 1.9608 -82.242 3.8697 15.647 13.6154 41.097 78.1824 29.355 140.8544 11.691 127.1254 -15.68 219.1114 -39.177 310.9864 37.099 136.8944 19.501 228.8794 7.792 312.9484 -950.913 -68.5296 -37.261 -9.8536 -950.913 -68.5296 -25.512 -17.7263 -41.137 -2.0383 0.0 0.0 -15.718 -5.8641 -52.892 0.0387 -84.136 1.9664 15.657 11.7702 42.933 76.2829 31.301 138.8619 11.709 127.1769 -13.737 219.1629 -37.289 309.1019 35.204 136.9299 21.491 230.8589 11.696 311.0669 -950.912 -70.4391 -37.316 -7.857 -950.912 -70.4391 -33.284 -19.5562 -43.065 -5.8831 0.0 0.0 -17.601 -3.9555 -52.825 3.9491 -84.116 5.865 15.676 11.6726 41.161 74.3105 33.251 136.8915 11.788 129.1675 -15.659 219.1605 -37.218 307.2075 37.172 136.9255 23.475 228.9505 11.742 309.1605 -950.876 -72.3735 -46.974 -17.5218 -950.876 -72.3735 -37.176 -21.4773 -41.067 -2.0105 0.0 0.0 -17.581 -3.9632 -950.866 -70.4822 -950.866 -70.4822 15.656 13.5964 43.028 72.3578 39.164 132.9998 5.849 113.4558 -15.67 209.3018 -37.239 299.3348 29.327 123.2368 15.641 217.1178 -17.563 301.2778 -950.866 -70.4822 -37.244 -7.9112 -950.866 -70.4822 -27.395 -17.6986 -41.099 -3.8785 0.0 0.0 -17.628 -3.9689 -950.896 -72.3742 -950.896 -72.3742 17.569 11.7437 43.006 72.3518 40.967 131.1088 3.903 117.4018 -19.552 209.3728 -43.056 299.3658 27.416 123.2928 11.741 217.1708 -19.635 301.3168 -950.896 -72.3742 -39.13 -9.7982 -950.896 -72.3742 -27.445 -19.5104 -39.163 -3.9637 0.0 0.0 -17.621 -5.8026 -950.915 -74.3348 -950.915 -74.3348 17.554 9.7629 42.972 70.4282 39.081 131.1062 7.72 119.3082 -15.683 207.4212 -39.183 295.4852 29.301 123.2932 17.573 215.1972 5.798 299.3612 -950.915 -74.3348 -37.25 -7.9008 -950.915 -74.3348 -29.412 -21.4806 -39.188 -3.895 0.0 0.0 -19.495 -5.8269 -41.078 9.7636 -82.134 11.7723 17.651 9.7799 43.068 70.4226 39.135 131.0636 5.891 119.3176 -15.647 209.3166 -39.1 297.3716 29.37 125.1776 17.628 215.1996 3.922 305.1906 -950.859 -74.3644 -39.097 -5.9944 -950.859 -74.3644 -27.405 -19.6267 -43.005 -7.757 0.0 0.0 -19.489 -7.7932 -52.786 9.8175 -97.792 19.5882 17.652 5.9538 43.127 68.412 41.112 127.15 7.796 119.366 -19.501 211.303 -41.08 297.418 29.323 129.102 15.665 221.066 -19.521 301.293 -950.859 -78.25 -39.172 -9.8971 -950.859 -78.25 -31.295 -23.4733 -41.103 -7.8039 0.0 0.0 -17.651 -7.8036 -54.76 17.5873 -103.717 23.4452 19.586 5.9247 45.027 66.4712 43.046 121.2582 9.762 117.3922 -13.714 209.2782 -37.168 293.4532 31.34 123.2482 23.474 213.2482 11.761 303.2492 -948.916 -78.2838 -37.228 -11.7455 -948.916 -78.2838 -25.429 -23.5422 -39.162 -5.836 0.0 0.0 -17.574 -9.6908 -45.013 17.6046 -86.174 25.4504 19.505 7.8554 45.011 66.5854 43.022 121.3694 11.612 117.4104 -15.673 205.4814 -37.276 291.5884 31.286 123.2894 21.471 211.3884 11.677 301.3524 -948.965 -78.2256 -37.214 -9.7591 -948.965 -78.2256 -21.582 -23.3694 -39.091 -5.8619 0.0 0.0 -17.613 -7.8564 -48.851 21.4908 -93.852 35.2228 19.547 7.7943 46.994 68.3858 48.9 121.3238 11.68 119.3528 -13.704 209.3108 -37.136 293.4858 33.244 127.1468 23.484 215.2168 9.807 303.2508 -948.901 -78.2832 -37.144 -9.7923 -948.901 -78.2832 -21.521 -21.5736 -37.219 -3.9434 0.0 0.0 -17.606 -7.8708 -48.928 23.5124 -91.942 39.0274 17.682 7.8131 47.006 68.3764 50.881 121.2584 11.76 117.4164 -13.641 209.2814 -35.228 295.4114 33.302 125.1634 25.458 215.1774 11.777 305.2054 -948.883 -78.2876 -37.136 -9.7581 -948.883 -78.2876 -21.473 -21.4842 -41.093 -5.8675 0.0 0.0 -17.652 -9.7232 -48.907 23.4667 -91.986 45.0107 19.572 5.8416 48.857 64.5767 46.986 119.3267 13.703 115.4057 -11.782 203.4697 -33.321 291.4967 42.959 119.3457 27.353 209.3707 13.673 301.2857 -946.99 -80.2323 -37.191 -11.68 -946.99 -80.2323 -17.712 -21.5421 -41.156 -3.9531 0.0 0.0 -15.797 -9.7622 -49.014 25.3932 -95.929 48.9282 21.404 5.8908 48.876 66.4302 46.904 121.2642 13.642 117.3622 -5.938 207.4062 -31.426 291.5342 41.008 123.2702 31.186 215.1872 25.347 301.2892 -947.041 -80.2318 -37.252 -11.6675 -947.041 -80.2318 -17.756 -21.5262 -41.083 -7.7747 0.0 0.0 -17.651 -7.7964 -48.956 29.3679 -93.824 60.6209 19.579 3.8936 48.957 64.4659 46.999 117.4259 15.6 115.4059 -9.755 203.4539 -33.273 289.5569 43.015 119.3549 29.377 209.3299 15.673 299.3489 -946.945 -82.1741 -37.198 -13.6265 -946.945 -82.1741 -19.535 -25.3858 -39.231 -5.7968 0.0 0.0 -17.749 -5.7734 -48.985 31.469 -92.009 62.646 19.547 1.999 50.831 60.756 48.819 115.514 17.508 115.573 -5.962 205.5 -33.352 287.702 44.926 121.398 31.238 209.461 13.603 297.466 -945.076 -84.03 -37.256 -15.458 -945.076 -84.03 -15.81 -27.2512 -42.983 -5.7462 0.0 0.0 -21.424 -5.8099 -50.821 33.3715 -87.947 62.7475 17.742 2.0494 50.947 62.6125 47.042 117.4855 15.787 115.5345 -17.494 201.6165 -37.128 287.6925 43.138 121.4065 21.6 211.3845 -13.631 291.6345 -946.877 -84.0385 -42.982 -15.4801 -946.877 -84.0385 -19.536 -27.2588 -42.97 -0.0749 0.0 0.0 -17.618 -7.8581 -46.873 33.1748 -80.199 64.5268 17.678 3.9417 52.877 64.4718 46.977 119.3428 19.6 117.3688 -15.588 201.5078 -35.174 287.6118 45.064 123.2208 21.555 211.2928 0.053 297.3538 -46.985 -13.746 -43.009 -11.7855 -946.901 -82.1942 -19.51 -25.4046 -39.172 -0.0476 0.0 0.0 -19.627 -3.8831 -44.996 31.4197 -76.28 62.6227 19.528 2.0 52.807 60.6667 48.917 115.4517 19.535 115.4757 -13.704 197.6537 -33.318 285.7237 46.903 119.4027 27.332 205.5057 11.693 293.5347 -44.942 -13.6947 -39.181 -13.5914 -945.038 -84.0883 -15.713 -25.3967 -39.124 -0.055 0.0 0.0 -21.546 -2.0185 -44.959 33.23 -74.368 62.666 19.561 1.9796 54.774 62.507 50.881 115.45 17.657 115.465 -13.648 201.511 -33.266 285.689 44.999 121.321 23.461 209.334 11.744 295.44 -944.995 -84.136 -39.131 -13.5967 -944.995 -84.136 -15.719 -25.4459</_>
      <_>-46.928 -5.8299 0.0 0.0 -15.605 -3.9758 -50.872 -0.0171 -958.668 -70.4201 9.797 9.8193 33.279 76.2249 21.603 138.8459 3.996 129.1169 -21.483 221.0839 -46.988 301.2989 23.518 136.9919 7.843 228.9149 -29.335 305.2299 -47.116 -17.6755 -44.95 -15.672 -958.668 -70.4201 -27.312 -27.3743 -46.969 -5.8531 0.0 0.0 -13.751 -3.9466 -956.763 -70.4338 -956.763 -70.4338 9.792 9.7887 35.184 74.3752 25.391 138.8342 5.878 127.1822 -21.516 219.1122 -45.082 303.2692 27.357 136.9312 9.74 226.9562 -25.473 305.2292 -56.776 -31.2472 -43.135 -15.6497 -956.763 -70.4338 -27.423 -23.4932 -48.899 -5.8475 0.0 0.0 -15.637 -5.8556 -46.996 0.0229 -82.175 0.0901 9.842 9.8266 35.253 74.3865 25.472 136.9605 5.913 125.2965 -19.535 217.1685 -43.098 303.2885 27.392 135.0125 9.777 225.0105 -21.486 309.1135 -956.725 -70.4135 -45.011 -15.554 -956.725 -70.4135 -29.367 -21.5253 -45.021 -2.0707 0.0 0.0 -15.637 -9.8217 -45.083 1.9882 -86.079 1.9517 9.808 13.6487 35.195 78.1593 23.541 140.7553 5.918 129.0843 -19.585 221.0183 -46.979 309.1083 25.426 138.8193 7.836 230.8023 -23.492 312.9693 -956.748 -68.5207 -44.986 -11.8117 -956.748 -68.5207 -33.252 -17.7311 -43.064 -1.9718 0.0 0.0 -17.589 -9.817 -954.783 -68.5123 -954.783 -68.5123 11.778 13.6458 37.208 78.1617 27.401 138.9007 7.858 127.1577 -17.616 219.1057 -44.987 309.1017 29.332 136.8947 9.797 228.8547 -19.576 312.9817 -954.783 -68.5123 -41.036 -11.7527 -954.783 -68.5123 -27.402 -19.5975 -41.142 -1.979 0.0 0.0 -15.704 -7.9044 -50.922 1.9608 -82.242 3.8697 15.647 13.6154 41.097 78.1824 29.355 140.8544 11.691 127.1254 -15.68 219.1114 -39.177 310.9864 37.099 136.8944 19.501 228.8794 7.792 312.9484 -950.913 -68.5296 -37.261 -9.8536 -950.913 -68.5296 -25.512 -17.7263 -41.137 -2.0383 0.0 0.0 -15.718 -5.8641 -52.892 0.0387 -84.136 1.9664 15.657 11.7702 42.933 76.2829 31.301 138.8619 11.709 127.1769 -13.737 219.1629 -37.289 309.1019 35.204 136.9299 21.491 230.8589 11.696 311.0669 -950.912 -70.4391 -37.316 -7.857 -950.912 -70.4391 -33.284 -19.5562 -43.065 -5.8831 0.0 0.0 -17.601 -3.9555 -52.825 3.9491 -84.116 5.865 15.676 11.6726 41.161 74.3105 33.251 136.8915 11.788 129.1675 -15.659 219.1605 -37.218 307.2075 37.172 136.9255 23.475 228.9505 11.742 309.1605 -950.876 -72.3735 -46.974 -17.5218 -950.876 -72.3735 -37.176 -21.4773 -41.067 -2.0105 0.0 0.0 -17.581 -3.9632 -950.866 -70.4822 -950.866 -70.4822 15.656 13.5964 43.028 72.3578 39.164 132.9998 5.849 113.4558 -15.67 209.3018 -37.239 299.3348 29.327 123.2368 15.641 217.1178 -17.563 301.2778 -950.866 -70.4822 -37.244 -7.9112 -950.866 -70.4822 -27.395 -17.6986 -41.099 -3.8785 0.0 0.0 -17.628 -3.9689 -950.896 -72.3742 -950.896 -72.3742 17.569 11.7437 43.006 72.3518 40.967 131.1088 3.903 117.4018 -19.552 209.3728 -43.056 299.3658 27.416 123.2928 11.741 217.1708 -19.635 301.3168 -950.896 -72.3742 -39.13 -9.7982 -950.896 -72.3742 -27.445 -19.5104 -39.163 -3.9637 0.0 0.0 -17.621 -5.8026 -950.915 -74.3348 -950.915 -74.3348 17.554 9.7629 42.972 70.4282 39.081 131.1062 7.72 119.3082 -15.683 207.4212 -39.183 295.4852 29.301 123.2932 17.573 215.1972 5.798 299.3612 -950.915 -74.3348 -37.25 -7.9008 -950.915 -74.3348 -29.412 -21.4806 -39.188 -3.895 0.0 0.0 -19.495 -5.8269 -41.078 9.7636 -82.134 11.7723 17.651 9.7799 43.068 70.4226 39.135 131.0636 5.891 119.3176 -15.647 209.3166 -39.1 297.3716 29.37 125.1776 17.628 215.1996 3.922 305.1906 -950.859 -74.3644 -39.097 -5.9944 -950.859 -74.3644 -27.405 -19.6267 -43.005 -7.757 0.0 0.0 -19.489 -7.7932 -52.786 9.8175 -97.792 19.5882 17.652 5.9538 43.127 68.412 41.112 127.15 7.796 119.366 -19.501 211.303 -41.08 297.418 29.323 129.102 15.665 221.066 -19.521 301.293 -950.859 -78.25 -39.172 -9.8971 -950.859 -78.25 -31.295 -23.4733 -41.103 -7.8039 0.0 0.0 -17.651 -7.8036 -54.76 17.5873 -103.717 23.4452 19.586 5.9247 45.027 66.4712 43.046 121.2582 9.762 117.3922 -13.714 209.2782 -37.168 293.4532 31.34 123.2482 23.474 213.2482 11.761 303.2492 -948.916 -78.2838 -37.228 -11.7455 -948.916 -78.2838 -25.429 -23.5422 -39.162 -5.836 0.0 0.0 -17.574 -9.6908 -45.013 17.6046 -86.174 25.4504 19.505 7.8554 45.011 66.5854 43.022 121.3694 11.612 117.4104 -15.673 205.4814 -37.276 291.5884 31.286 123.2894 21.471 211.3884 11.677 301.3524 -948.965 -78.2256 -37.214 -9.7591 -948.965 -78.2256 -21.582 -23.3694 -39.091 -5.8619 0.0 0.0 -17.613 -7.8564 -48.851 21.4908 -93.852 35.2228 19.547 7.7943 46.994 68.3858 48.9 121.3238 11.68 119.3528 -13.704 209.3108 -37.136 293.4858 33.244 127.1468 23.484 215.2168 9.807 303.2508 -948.901 -78.2832 -37.144 -9.7923 -948.901 -78.2832 -21.521 -21.5736 -37.219 -3.9434 0.0 0.0 -17.606 -7.8708 -48.928 23.5124 -91.942 39.0274 17.682 7.8131 47.006 68.3764 50.881 121.2584 11.76 117.4164 -13.641 209.2814 -35.228 295.4114 33.302 125.1634 25.458 215.1774 11.777 305.2054 -948.883 -78.2876 -37.136 -9.7581 -948.883 -78.2876 -21.473 -21.4842 -41.093 -5.8675 0.0 0.0 -17.652 -9.7232 -48.907 23.4667 -91.986 45.0107 19.572 5.8416 48.857 64.5767 46.986 119.3267 13.703 115.4057 -11.782 203.4697 -33.321 291.4967 42.959 119.3457 27.353 209.3707 13.673 301.2857 -946.99 -80.2323 -37.191 -11.68 -946.99 -80.2323 -17.712 -21.5421 -41.156 -3.9531 0.0 0.0 -15.797 -9.7622 -49.014 25.3932 -95.929 48.9282 21.404 5.8908 48.876 66.4302 46.904 121.2642 13.642 117.3622 -5.938 207.4062 -31.426 291.5342 41.008 123.2702 31.186 215.1872 25.347 301.2892 -947.041 -80.2318 -37.252 -11.6675 -947.041 -80.2318 -17.756 -21.5262 -41.083 -7.7747 0.0 0.0 -17.651 -7.7964 -48.956 29.3679 -93.824 60.6209 19.579 3.8936 48.957 64.4659 46.999 117.4259 15.6 115.4059 -9.755 203.4539 -33.273 289.5569 43.015 119.3549 29.377 209.3299 15.673 299.3489 -946.945 -82.1741 -37.198 -13.6265 -946.945 -82.1741 -19.535 -25.3858 -39.231 -5.7968 0.0 0.0 -17.749 -5.7734 -48.985 31.469 -92.009 62.646 19.547 1.999 50.831 60.756 48.819 115.514 17.508 115.573 -5.962 205.5 -33.352 287.702 44.926 121.398 31.238 209.461 13.603 297.466 -945.076 -84.03 -37.256 -15.458 -945.076 -84.03 -15.81 -27.2512 -42.983 -5.7462 0.0 0.0 -21.424 -5.8099 -50.821 33.3715 -87.947 62.7475 17.742 2.0494 50.947 62.6125 47.042 117.4855 15.787 115.5345 -17.494 201.6165 -37.128 287.6925 43.138 121.4065 21.6 211.3845 -13.631 291.6345 -946.877 -84.0385 -42.982 -15.4801 -946.877 -84.0385 -19.536 -27.2588 -42.97 -0.0749 0.0 0.0 -17.618 -7.8581 -46.873 33.1748 -80.199 64.5268 17.678 3.9417 52.877 64.4718 46.977 119.3428 19.6 117.3688 -15.588 201.5078 -35.174 287.6118 45.064 123.2208 21.555 211.2928 0.053 297.3538 -46.985 -13.746 -43.009 -11.7855 -946.901 -82.1942 -19.51 -25.4046 -39.172 -0.0476 0.0 0.0 -19.627 -3.8831 -44.996 31.4197 -76.28 62.6227 19.528 2.0 52.807 60.6667 48.917 115.4517 19.535 115.4757 -13.704 197.6537 -33.318 285.7237 46.903 119.4027 27.332 205.5057 11.693 293.5347 -44.942 -13.6947 -39.181 -13.5914 -945.038 -84.0883 -15.713 -25.3967 -39.124 -0.055 0.0 0.0 -21.546 -2.0185 -44.959 33.23 -74.368 62.666 19.561 1.9796 54.774 62.507 50.881 115.45 17.657 115.465 -13.648 201.511 -33.266 285.689 44.999 121.321 23.461 209.334 11.744 295.44 -944.995 -84.136 -39.131 -13.5967 -944.995 -84.136 -15.719 -25.4459 -39.132 -0.0323 0.0 0.0 -21.523 -2.0285 -45.059 33.3558 -78.229 70.4558 19.566 1.9663 56.721 62.5848 56.751 117.3908 17.63 121.3018 -13.681 205.4358 -35.26 287.6248 44.933 125.1698 21.512 217.1648 -9.756 295.4228 -945.009 -84.1342 -37.204 -11.7569 -945.009 -84.1342 -15.723 -25.4684 -37.217 1.8339 0.0 0.0 -21.524 -2.0414 -44.999 33.2453 -76.244 68.4383 19.548 1.9934 58.643 62.5513 56.713 117.3653 17.601 123.1623 -11.767 205.3933 -33.308 285.6473 41.089 125.1443 23.474 217.0943 9.756 297.3573 -945.007 -84.1797 -35.267 -9.7897 -945.007 -84.1797 -15.706 -23.5612 -39.075 -1.8696 0.0 0.0 -27.263 -1.9143 -46.891 37.1855 -76.263 76.2425 19.64 0.1055 56.839 60.6575 51.024 117.3845 15.796 123.2125 -13.619 203.5655 -35.151 285.7115 43.088 123.3165 23.586 217.1455 5.955 297.3975 -944.911 -86.0595 -39.001 -11.7077 -944.911 -86.0595 -15.642 -25.4217 -40.981 -1.8347 0.0 0.0 -27.247 -1.9315 -44.992 37.2429 -76.222 76.3979 19.627 0.1218 58.748 60.6929 51.001 119.3899 17.643 121.3029 -13.608 203.4889 -33.187 285.7149 45.046 123.2739 25.547 215.2129 15.715 295.4959 -41.009 -1.9475 -37.113 -9.7338 -944.912 -86.0501 -17.497 -25.4091 -39.051 -1.8467 0.0 0.0 -27.256 -1.9582 -46.828 41.1552 -76.19 80.3132 19.615 0.1581 58.789 60.7142 54.833 119.4062 15.787 121.3662 -13.666 201.6042 -33.224 283.7632 43.128 123.3402 25.527 213.3302 13.771 295.4982 -42.923 -3.9005 -35.156 -9.7492 -944.921 -86.0258 -15.569 -29.2971</_>
      <_>-41.142 -1.979 0.0 0.0 -15.704 -7.9044 -50.922 1.9608 -82.242 3.8697 15.647 13.6154 41.097 78.1824 29.355 140.8544 11.691 127.1254 -15.68 219.1114 -39.177 310.9864 37.099 136.8944 19.501 228.8794 7.792 312.9484 -950.913 -68.5296 -37.261 -9.8536 -950.913 -68.5296 -25.512 -17.7263 -41.137 -2.0383 0.0 0.0 -15.718 -5.8641 -52.892 0.0387 -84.136 1.9664 15.657 11.7702 42.933 76.2829 31.301 138.8619 11.709 127.1769 -13.737 219.1629 -37.289 309.1019 35.204 136.9299 21.491 230.8589 11.696 311.0669 -950.912 -70.4391 -37.316 -7.857 -950.912 -70.4391 -33.284 -19.5562 -43.065 -5.8831 0.0 0.0 -17.601 -3.9555 -52.825 3.9491 -84.116 5.865 15.676 11.6726 41.161 74.3105 33.251 136.8915 11.788 129.1675 -15.659 219.1605 -37.218 307.2075 37.172 136.9255 23.475 228.9505 11.742 309.1605 -950.876 -72.3735 -46.974 -17.5218 -950.876 -72.3735 -37.176 -21.4773 -41.067 -2.0105 0.0 0.0 -17.581 -3.9632 -950.866 -70.4822 -950.866 -70.4822 15.656 13.5964 43.028 72.3578 39.164 132.9998 5.849 113.4558 -15.67 209.3018 -37.239 299.3348 29.327 123.2368 15.641 217.1178 -17.563 301.2778 -950.866 -70.4822 -37.244 -7.9112 -950.866 -70.4822 -27.395 -17.6986 -41.099 -3.8785 0.0 0.0 -17.628 -3.9689 -950.896 -72.3742 -950.896 -72.3742 17.569 11.7437 43.006 72.3518 40.967 131.1088 3.903 117.4018 -19.552 209.3728 -43.056 299.3658 27.416 123.2928 11.741 217.1708 -19.635 301.3168 -950.896 -72.3742 -39.13 -9.7982 -950.896 -72.3742 -27.445 -19.5104 -39.163 -3.9637 0.0 0.0 -17.621 -5.8026 -950.915 -74.3348 -950.915 -74.3348 17.554 9.7629 42.972 70.4282 39.081 131.1062 7.72 119.3082 -15.683 207.4212 -39.183 295.4852 29.301 123.2932 17.573 215.1972 5.798 299.3612 -950.915 -74.3348 -37.25 -7.9008 -950.915 -74.3348 -29.412 -21.4806 -39.188 -3.895 0.0 0.0 -19.495 -5.8269 -41.078 9.7636 -82.134 11.7723 17.651 9.7799 43.068 70.4226 39.135 131.0636 5.891 119.3176 -15.647 209.3166 -39.1 297.3716 29.37 125.1776 17.628 215.1996 3.922 305.1906 -950.859 -74.3644 -39.097 -5.9944 -950.859 -74.3644 -27.405 -19.6267 -43.005 -7.757 0.0 0.0 -19.489 -7.7932 -52.786 9.8175 -97.792 19.5882 17.652 5.9538 43.127 68.412 41.112 127.15 7.796 119.366 -19.501 211.303 -41.08 297.418 29.323 129.102 15.665 221.066 -19.521 301.293 -950.859 -78.25 -39.172 -9.8971 -950.859 -78.25 -31.295 -23.4733 -41.103 -7.8039 0.0 0.0 -17.651 -7.8036 -54.76 17.5873 -103.717 23.4452 19.586 5.9247 45.027 66.4712 43.046 121.2582 9.762 117.3922 -13.714 209.2782 -37.168 293.4532 31.34 123.2482 23.474 213.2482 11.761 303.2492 -948.916 -78.2838 -37.228 -11.7455 -948.916 -78.2838 -25.429 -23.5422 -39.162 -5.836 0.0 0.0 -17.574 -9.6908 -45.013 17.6046 -86.174 25.4504 19.505 7.8554 45.011 66.5854 43.022 121.3694 11.612 117.4104 -15.673 205.4814 -37.276 291.5884 31.286 123.2894 21.471 211.3884 11.677 301.3524 -948.965 -78.2256 -37.214 -9.7591 -948.965 -78.2256 -21.582 -23.3694 -39.091 -5.8619 0.0 0.0 -17.613 -7.8564 -48.851 21.4908 -93.852 35.2228 19.547 7.7943 46.994 68.3858 48.9 121.3238 11.68 119.3528 -13.704 209.3108 -37.136 293.4858 33.244 127.1468 23.484 215.2168 9.807 303.2508 -948.901 -78.2832 -37.144 -9.7923 -948.901 -78.2832 -21.521 -21.5736 -37.219 -3.9434 0.0 0.0 -17.606 -7.8708 -48.928 23.5124 -91.942 39.0274 17.682 7.8131 47.006 68.3764 50.881 121.2584 11.76 117.4164 -13.641 209.2814 -35.228 295.4114 33.302 125.1634 25.458 215.1774 11.777 305.2054 -948.883 -78.2876 -37.136 -9.7581 -948.883 -78.2876 -21.473 -21.4842 -41.093 -5.8675 0.0 0.0 -17.652 -9.7232 -48.907 23.4667 -91.986 45.0107 19.572 5.8416 48.857 64.5767 46.986 119.3267 13.703 115.4057 -11.782 203.4697 -33.321 291.4967 42.959 119.3457 27.353 209.3707 13.673 301.2857 -946.99 -80.2323 -37.191 -11.68 -946.99 -80.2323 -17.712 -21.5421 -41.156 -3.9531 0.0 0.0 -15.797 -9.7622 -49.014 25.3932 -95.929 48.9282 21.404 5.8908 48.876 66.4302 46.904 121.2642 13.642 117.3622 -5.938 207.4062 -31.426 291.5342 41.008 123.2702 31.186 215.1872 25.347 301.2892 -947.041 -80.2318 -37.252 -11.6675 -947.041 -80.2318 -17.756 -21.5262 -41.083 -7.7747 0.0 0.0 -17.651 -7.7964 -48.956 29.3679 -93.824 60.6209 19.579 3.8936 48.957 64.4659 46.999 117.4259 15.6 115.4059 -9.755 203.4539 -33.273 289.5569 43.015 119.3549 29.377 209.3299 15.673 299.3489 -946.945 -82.1741 -37.198 -13.6265 -946.945 -82.1741 -19.535 -25.3858 -39.231 -5.7968 0.0 0.0 -17.749 -5.7734 -48.985 31.469 -92.009 62.646 19.547 1.999 50.831 60.756 48.819 115.514 17.508 115.573 -5.962 205.5 -33.352 287.702 44.926 121.398 31.238 209.461 13.603 297.466 -945.076 -84.03 -37.256 -15.458 -945.076 -84.03 -15.81 -27.2512 -42.983 -5.7462 0.0 0.0 -21.424 -5.8099 -50.821 33.3715 -87.947 62.7475 17.742 2.0494 50.947 62.6125 47.042 117.4855 15.787 115.5345 -17.494 201.6165 -37.128 287.6925 43.138 121.4065 21.6 211.3845 -13.631 291.6345 -946.877 -84.0385 -42.982 -15.4801 -946.877 -84.0385 -19.536 -27.2588 -42.97 -0.0749 0.0 0.0 -17.618 -7.8581 -46.873 33.1748 -80.199 64.5268 17.678 3.9417 52.877 64.4718 46.977 119.3428 19.6 117.3688 -15.588 201.5078 -35.174 287.6118 45.064 123.2208 21.555 211.2928 0.053 297.3538 -46.985 -13.746 -43.009 -11.7855 -946.901 -82.1942 -19.51 -25.4046 -39.172 -0.0476 0.0 0.0 -19.627 -3.8831 -44.996 31.4197 -76.28 62.6227 19.528 2.0 52.807 60.6667 48.917 115.4517 19.535 115.4757 -13.704 197.6537 -33.318 285.7237 46.903 119.4027 27.332 205.5057 11.693 293.5347 -44.942 -13.6947 -39.181 -13.5914 -945.038 -84.0883 -15.713 -25.3967 -39.124 -0.055 0.0 0.0 -21.546 -2.0185 -44.959 33.23 -74.368 62.666 19.561 1.9796 54.774 62.507 50.881 115.45 17.657 115.465 -13.648 201.511 -33.266 285.689 44.999 121.321 23.461 209.334 11.744 295.44 -944.995 -84.136 -39.131 -13.5967 -944.995 -84.136 -15.719 -25.4459 -39.132 -0.0323 0.0 0.0 -21.523 -2.0285 -45.059 33.3558 -78.229 70.4558 19.566 1.9663 56.721 62.5848 56.751 117.3908 17.63 121.3018 -13.681 205.4358 -35.26 287.6248 44.933 125.1698 21.512 217.1648 -9.756 295.4228 -945.009 -84.1342 -37.204 -11.7569 -945.009 -84.1342 -15.723 -25.4684 -37.217 1.8339 0.0 0.0 -21.524 -2.0414 -44.999 33.2453 -76.244 68.4383 19.548 1.9934 58.643 62.5513 56.713 117.3653 17.601 123.1623 -11.767 205.3933 -33.308 285.6473 41.089 125.1443 23.474 217.0943 9.756 297.3573 -945.007 -84.1797 -35.267 -9.7897 -945.007 -84.1797 -15.706 -23.5612 -39.075 -1.8696 0.0 0.0 -27.263 -1.9143 -46.891 37.1855 -76.263 76.2425 19.64 0.1055 56.839 60.6575 51.024 117.3845 15.796 123.2125 -13.619 203.5655 -35.151 285.7115 43.088 123.3165 23.586 217.1455 5.955 297.3975 -944.911 -86.0595 -39.001 -11.7077 -944.911 -86.0595 -15.642 -25.4217 -40.981 -1.8347 0.0 0.0 -27.247 -1.9315 -44.992 37.2429 -76.222 76.3979 19.627 0.1218 58.748 60.6929 51.001 119.3899 17.643 121.3029 -13.608 203.4889 -33.187 285.7149 45.046 123.2739 25.547 215.2129 15.715 295.4959 -41.009 -1.9475 -37.113 -9.7338 -944.912 -86.0501 -17.497 -25.4091 -39.051 -1.8467 0.0 0.0 -27.256 -1.9582 -46.828 41.1552 -76.19 80.3132 19.615 0.1581 58.789 60.7142 54.833 119.4062 15.787 121.3662 -13.666 201.6042 -33.224 283.7632 43.128 123.3402 25.527 213.3302 13.771 295.4982 -42.923 -3.9005 -35.156 -9.7492 -944.921 -86.0258 -15.569 -29.2971 -39.128 -1.9232 0.0 0.0 -25.475 -0.0246 -45.024 45.0489 -74.3 88.0589 19.637 0.05 60.662 60.6889 50.945 121.2809 19.501 121.3089 -11.764 203.4709 -31.31 285.6609 46.94 123.2629 31.249 215.2289 17.578 297.4009 -42.995 -4.0029 -35.219 -9.8216 -943.048 -86.1001 -13.764 -27.4045 -42.947 -1.987 0.0 0.0 -27.328 -0.0321 -44.955 45.0053 -74.245 91.8223 19.66 0.0525 60.704 62.5233 50.898 123.2383 19.556 117.3663 -13.633 199.5483 -31.326 283.6803 48.917 121.2843 25.462 211.2873 11.762 295.4213 -43.024 -5.9184 -41.044 -11.7727 -943.016 -86.1227 -19.547 -23.5207 -42.973 -2.0734 0.0 0.0 -27.356 1.8701 -44.957 50.7477 -72.246 93.7587 19.684 -0.0267 62.624 60.6227 54.888 123.1247 17.714 121.2137 -13.642 201.4547 -33.226 283.6477 47.052 123.1607 25.487 215.1287 3.999 295.3607 -44.922 -9.9098 -42.904 -11.8561 -942.966 -86.1823 -21.42 -27.4797 -43.027 -3.8537 0.0 0.0 -25.49 0.0506 -43.046 52.7998 -70.401 95.8648 21.553 -0.0198 64.552 60.6288 54.768 121.2818 21.486 117.4208 -13.652 199.5188 -35.186 283.6918 50.86 121.2618 25.436 213.2228 -1.948 293.4638 -44.984 -13.7037 -41.129 -9.792 -941.078 -88.0452 -25.369 -23.4641 -41.085 -3.9536 0.0 0.0 -25.447 3.9057 -41.063 54.7566 -66.52 103.6316 23.487 -1.9238 66.526 58.7456 56.724 119.3746 23.484 117.3616 -9.775 197.6106 -27.436 281.7666 54.746 119.3076 35.183 211.3126 15.651 293.5446 -41.154 -11.7825 -41.006 -9.7979 -939.124 -89.9744 -23.483 -23.4819</_>
